nep3 4 B O C H 
cutoff 8 4 84 26
n_max 6 4
basis_size 12 12
l_max 4 2 0
ANN 100 0
 -1.4805543e-01
 -8.5740155e-03
 -1.7318370e-02
 -7.0684463e-02
 -6.0873806e-01
  6.3336021e-03
  6.0417229e-01
  2.0358522e-01
  3.3032880e-03
 -6.9754239e-04
  1.2113041e-01
 -5.4930236e-02
  7.8980669e-02
 -2.7211260e-02
  1.6203194e-03
 -1.0589650e-01
  2.2779931e-01
  4.4641536e-02
 -3.1881782e-01
  1.1294153e-01
  1.4145824e-02
 -1.2793559e-01
  2.4998079e-03
  1.4387901e-01
 -4.0643734e-01
  1.0496215e-01
  1.3342623e-01
 -3.1503409e-02
 -7.1444404e-03
  1.1609373e-01
  1.0618568e-02
 -8.4799558e-02
 -2.0579212e+00
  1.8500072e-01
  3.0392685e+00
 -3.4615147e-01
  1.2551786e-01
 -2.3242886e-01
  1.7368112e+00
 -2.3278815e-01
  7.7762946e-02
 -2.5757080e-01
  9.6308666e-01
 -1.5420143e-01
 -1.4573727e+00
  2.3510024e-02
  8.0982177e-03
 -6.7398053e-01
  4.5634252e-01
 -7.7197373e-02
  3.5033736e-01
 -1.0875493e+00
  3.7849486e-01
 -1.9040415e+00
 -3.8202402e-01
  1.0681527e+00
  3.3296400e-03
  1.2750851e-01
 -1.7757566e+00
  1.2144660e-02
  2.4192037e-02
  4.9310699e-01
 -4.4954303e-03
  3.9098118e-02
  1.6644714e-02
 -3.7557471e-03
 -4.8813544e-02
  5.2156709e-02
 -1.2889687e-02
  7.9471674e-03
  2.0634388e-03
 -3.4901213e-02
 -1.1092031e-02
  3.3640999e-02
  1.5754780e-02
  5.5622391e-02
  3.4916054e-02
  7.9650717e-04
 -2.7292993e-02
 -1.6000088e-02
 -2.5411332e-03
  2.3696786e-03
  6.5916985e-02
 -1.6476053e-03
  1.1460091e-02
  5.9241359e-03
  2.9336926e-02
 -3.2745328e-02
 -6.4236287e-04
  2.0545155e-02
 -1.4000717e-02
 -4.5122732e-03
  2.2137934e-02
  8.4044738e-04
 -3.5670396e-02
  2.3285180e-02
 -2.5745984e-02
 -5.5681322e-02
 -2.1373481e-02
 -3.1597006e-01
  7.0148075e-01
  4.4316962e-02
  4.6307921e-01
  1.0299643e-01
 -6.9656596e-02
  3.4695152e-02
 -9.9475048e-02
  1.9507192e-02
  4.2347680e-03
 -1.9991852e-01
  9.4294613e-03
 -2.7851439e-01
 -3.0709291e-02
 -4.3324679e-01
 -2.0898820e-01
 -9.4952112e-01
 -9.1150209e-02
  3.1807849e-01
 -2.6828321e-02
  1.2293899e-02
  1.7314294e-02
 -3.7775493e-01
  3.7595659e-01
 -1.8333459e-02
  7.1174011e-02
 -5.3790850e-03
 -8.1685148e-03
 -8.3897942e-01
 -9.0658646e-03
 -1.8468145e-02
  1.6696164e-02
  4.5786798e-03
  7.4958064e-02
 -4.6111094e-03
 -2.5942428e-03
  4.1804798e-03
 -5.1493305e-03
 -9.1903992e-03
 -3.9834711e-03
  3.3326168e-02
 -6.3524984e-02
  1.3459139e-02
  7.4991276e-03
 -1.5790962e-02
  7.0540432e-04
 -9.8630758e-03
 -1.6688275e-03
  7.7884825e-04
 -1.1518745e-02
 -9.6545753e-04
 -8.1519321e-02
 -1.2583220e-02
 -2.8370978e-02
 -6.3859954e-02
  6.0873594e-02
  7.3546246e-03
 -7.9828743e-03
 -4.6183150e-03
  1.6659258e-02
  8.7901298e-03
 -3.6044111e-03
 -5.8701128e-02
  9.5723517e-02
 -6.7394259e-03
  5.0910241e-03
 -1.0855729e-02
 -2.3174059e-02
  9.2860892e-02
  3.7201138e-03
  2.3976651e-03
  3.7714597e-02
  1.0472701e-02
 -2.8125957e-02
  1.8254552e-02
 -7.6945685e-03
 -3.7008099e-02
 -3.4072068e-02
  1.5108942e-02
 -9.7816275e-04
  2.8019076e-02
  1.1619686e-02
 -3.1872973e-02
 -1.7115696e-03
  1.2634616e-02
 -5.2113246e-02
  1.9890497e-02
  1.2067943e-03
 -1.5869865e-02
  1.5068054e-03
 -4.9610343e-03
 -1.8984661e-02
  8.4148586e-02
 -7.5351158e-03
  3.7199937e-02
  8.8310102e-03
  4.6072598e-03
 -1.7772350e-03
  8.6388231e-04
  3.9347138e-02
 -1.9856727e-02
  2.1463076e-02
 -6.0277927e-04
  2.0253470e-02
  3.7214905e-02
  1.4267745e-02
  1.4797305e-01
  3.6754493e-02
  2.7458712e-03
 -5.4308987e-04
  1.0457019e-02
 -7.2370673e-04
 -8.6427182e-03
 -9.4716260e-03
 -6.9776545e-03
 -3.7178625e-03
 -2.3672245e-02
  1.0535886e-02
 -1.6062157e-02
  3.3054873e-02
  1.0057534e-02
 -1.2549043e-03
 -5.2384497e-03
 -2.5808232e-02
 -2.6368842e-02
  2.5212074e-02
  2.5387684e-02
 -1.9697467e-02
  1.6163962e-02
 -1.3502338e-02
 -1.1838886e-02
 -2.7517870e-02
 -1.3968056e-02
  6.4445368e-04
  3.0348841e-02
 -1.7590741e-02
  4.6552073e-02
 -4.3852297e-03
 -1.2103930e-02
 -3.5516229e-02
  1.0696056e-03
  1.7517479e-02
 -2.2892812e-02
  2.3782440e-02
  1.4608262e-02
 -2.3618665e-02
  2.7227569e-02
 -2.0150125e-03
 -1.3291111e-02
  5.9485128e-03
 -1.4000331e-02
  2.1983208e-02
 -4.8385240e-02
 -2.4799112e-02
  3.8649882e-03
 -1.0221610e-02
  3.8226608e-02
  3.5648420e-04
 -4.9625030e-03
 -1.6395373e-03
  4.2117946e-03
 -1.4238353e-02
 -1.8568207e-02
 -3.7123561e-03
 -7.7590072e-03
 -2.6209457e-03
 -1.9806188e-01
  3.0421482e-03
  2.8098016e-03
  3.0879818e-03
 -3.9614025e-03
  8.5021444e-02
  5.3218912e-02
  7.4542966e-03
 -2.2538522e-02
  3.3614114e-03
  5.5741843e-02
  9.2652481e-04
  8.2876548e-02
  1.9299362e-02
  2.5043061e-03
 -7.6172993e-02
  2.7097290e-02
  1.0698196e-03
  2.9023725e-03
  4.3402272e-03
 -3.9766159e-02
 -5.6069447e-03
  9.2819892e-03
 -2.0380393e-02
 -4.4470504e-02
 -7.5177476e-02
  9.1486126e-03
  2.3664562e-03
  2.7692080e-02
  4.1833308e-02
 -3.7485554e-03
  2.1302614e-01
 -4.4221929e-03
  3.1338830e-02
 -1.3116880e-02
 -2.9619593e-02
  2.8916590e-03
  5.0395378e-03
  6.0251926e-04
  2.1585127e-02
 -4.2505726e-02
 -2.4964938e-02
  5.7992729e-04
  4.4679493e-02
 -4.3210322e-03
 -1.9322325e-02
 -2.5269141e-02
  1.6453348e-02
  2.4315740e-03
 -2.0059013e-01
 -4.5941779e-03
  1.2803830e-04
  3.4575600e-02
 -2.7855070e-02
 -5.2724235e-02
 -1.3737957e+00
  4.7979429e-01
  2.4370291e+00
 -9.5384204e-01
 -4.9475363e-01
 -1.1781828e-02
  3.3699259e-01
 -3.4478772e-03
  2.3397346e+00
 -2.6673648e-01
  1.1626063e-01
 -3.8787317e-01
 -4.9790174e-02
  9.0341127e-01
  3.5379332e-01
 -1.8070418e-02
  1.3270932e+00
  2.6729181e-01
 -1.3592818e-02
 -1.0190427e-01
 -3.5398749e-01
 -8.2076728e-01
 -7.5664973e-01
 -7.6506710e-01
  1.1224577e-01
  8.9301759e-01
  1.4412667e+00
 -8.5121747e-03
  9.6533276e-02
 -8.4451422e-02
 -3.4193385e-01
 -3.1508887e-01
  9.6519992e-02
 -6.5084044e-03
 -9.2777222e-02
  1.1844934e-02
  3.4559835e-03
  1.0678990e-02
  2.0376652e-02
 -4.1567264e-03
  1.5012600e-02
  3.3721009e-03
 -1.4446902e-02
 -2.1382548e-02
  2.4300270e-02
 -3.3299495e-03
  1.3192466e-02
 -1.7560316e-02
  6.3566933e-03
  1.0598159e-02
 -2.9204553e-03
  3.9882448e-02
  2.4286590e-03
  2.3941943e-02
 -5.6130193e-02
 -8.8620104e-02
  1.0517504e-03
  4.4417553e-02
  1.2620483e-02
  3.6545075e-02
 -3.8396049e-02
 -3.3077414e-03
 -3.5188537e-02
 -2.3962511e-02
 -1.0012438e-02
  1.7793499e-02
  7.6941089e-03
 -1.0094744e+00
  5.4511059e-02
  4.2723477e-02
  9.2527932e-03
  4.1062433e-02
  1.7327318e-02
 -2.1214532e-03
  3.0680681e-02
  6.4765625e-03
 -1.4796513e-02
 -2.6231855e-02
 -1.1699642e-02
 -2.7569158e-03
 -3.2363124e-03
 -9.2609618e-03
 -1.0819498e-02
  3.6435012e-02
 -5.1527809e-02
 -2.2000009e-02
  1.1730704e-02
 -3.2958899e-02
  2.6291281e-03
  1.8628946e-02
 -5.1651755e-03
 -8.5326441e-04
  3.4229474e-03
 -1.7966803e-03
  1.5860138e-02
 -4.0241454e-02
 -1.9460868e-02
  2.6173949e-01
  2.8053487e-03
 -2.2128516e-01
 -5.7024878e-01
  3.6508974e-01
  3.8074943e-01
  6.7859511e-03
  3.1587627e-02
 -4.8540253e-02
  3.2625191e-02
 -5.1225662e-02
  6.5491724e-01
  7.8075365e-03
 -6.7405723e-04
  1.2992801e-02
 -4.0722962e-02
  8.8991928e-01
  2.2564555e-02
  2.9322648e+00
 -1.1431816e-03
 -3.8537833e-01
  1.4429578e-01
 -2.0568439e-01
 -1.8566797e-02
 -2.1570984e-01
 -8.5479937e-02
 -1.9395199e-02
  1.3782287e-02
 -1.1026382e-01
 -1.6714670e-02
  5.0731059e-03
 -1.7821191e-01
 -1.7679291e+00
  1.1802077e+00
 -7.8334522e-01
  2.0996581e-01
 -4.2520901e-03
  1.4861594e+00
  7.8292918e-01
  2.3219991e-01
 -1.4266300e+00
 -5.7445983e-03
  1.4698233e-01
 -7.0294172e-01
 -6.0362775e-02
  3.1078193e+00
  8.1487185e-01
  8.3484763e-01
 -1.6729784e-01
 -2.6466713e+00
 -1.8623040e+00
  2.2452536e+00
  6.0657597e-01
  1.1517057e+00
 -3.7348983e-01
 -2.0564375e+00
  1.1666017e+00
 -9.9443775e-01
  1.1070716e-02
 -4.5172092e-02
  5.7435888e-01
  6.8417676e-03
 -3.2876119e-02
 -1.4079896e-02
 -3.0103035e-03
 -3.0714199e-02
 -4.5556147e-03
  1.0472265e-02
  3.1954799e-02
 -2.5054239e-02
  1.7763494e-03
  2.2857789e-02
 -1.2287210e-02
  3.4395579e-02
 -1.5938126e-02
  8.0368761e-03
 -1.7466933e-02
 -2.1189156e-04
  1.2943193e-02
  2.7576439e-02
 -1.4208478e-02
  6.4954564e-02
 -7.7768369e-03
 -4.0255863e-02
  1.7079098e-02
 -8.9241965e-03
 -2.2299374e-02
  1.2166590e-02
 -1.2825808e-02
  2.3424390e-03
 -3.4315418e-02
 -5.8413886e-02
  1.0536215e-02
 -2.2253757e-03
  3.1077815e-03
  6.6339117e-01
 -2.3046391e+00
 -2.7386525e+00
 -2.0502763e+00
  1.2550502e-01
 -1.2856878e+00
  2.2000748e-01
  3.2141721e-01
 -4.9243212e-01
  2.3126051e-01
 -1.7462590e+00
 -3.1022921e-01
  9.0870619e-01
 -1.3594139e-01
 -1.4381375e+00
  7.1983039e-02
 -1.7266054e+00
 -4.6202573e-03
 -5.8950442e-01
 -1.5532773e+00
 -1.6619267e-02
  3.5508115e+00
 -2.1185006e-01
  5.4966502e-02
 -6.5453029e-01
 -3.7346941e-01
 -1.4005521e-01
  9.5749989e-02
  3.4071039e-03
 -2.6266968e+00
  3.4075763e-02
  1.1854085e+00
 -2.7447596e+00
 -4.3651171e+00
 -1.7956358e+00
 -2.2127993e+00
 -9.4730097e-01
 -1.3242030e+00
 -2.5562224e+00
  1.5960542e+00
 -2.4266195e-01
 -1.2867987e+00
  5.4271609e-01
  2.0932464e-01
 -1.0693835e+00
 -6.8734556e-01
  1.2228296e+00
 -5.0674543e-02
  3.0194616e+00
 -2.8672442e+00
  7.1645719e-01
  2.9562526e+00
 -7.0616835e-01
  5.6061500e-01
 -1.1207780e+00
 -1.0043970e-01
  3.0334723e-01
 -3.3660555e-01
 -4.8577073e-01
 -7.8372419e-01
 -1.9000699e-01
 -1.9560684e+00
  5.0211501e-01
 -2.7721545e-01
 -1.2597174e-02
  5.4489464e-02
 -1.2856788e-02
  2.4942451e-03
  1.7919630e-02
 -2.2429386e-02
  1.0119471e-02
  1.1554049e-02
  1.0244341e-03
  5.4452228e-03
  8.8714333e-03
 -2.1817725e-02
  1.2495129e-02
 -1.0901506e-02
 -3.2155242e-02
  7.9053510e-03
 -1.2808624e-02
 -2.1960970e-03
  1.2434691e-01
 -5.7924354e-01
 -2.4805064e-03
  6.2674340e-03
  6.9251047e-03
 -1.1770691e-03
 -1.4822810e-03
 -1.9256411e-03
 -9.9811815e-03
  3.0378858e-03
 -6.5704323e-03
  1.7828358e-02
 -7.5689139e-04
  1.6392026e-02
 -7.1806031e-01
  5.7429872e-02
  6.8335742e-01
  9.5164753e-04
 -6.9999695e-03
  2.3369119e-01
 -2.8972802e+00
 -1.1312402e+00
 -3.3156896e-01
  2.6208097e-01
 -2.0680270e+00
 -1.9580403e-01
 -5.0220466e-01
 -5.7979180e-03
  1.5148156e+00
  4.9772859e-03
  2.0795564e-01
  3.5586488e-03
 -3.6608152e-02
  3.6786127e-01
 -4.7940318e-02
 -1.8978675e-03
 -3.6223501e-02
  1.4209055e+00
  8.3483839e-01
  6.9314563e-01
  1.3373215e+00
 -3.3575010e-02
  3.8627088e-02
  3.8805979e-01
  1.3959407e-03
 -1.8875100e-02
 -3.5303927e-03
 -4.5612093e-02
  4.3171672e-03
  4.1441829e-03
 -2.1739954e-02
  3.9844137e-02
 -2.7692239e-03
 -9.7400937e-03
 -1.3602237e-02
  9.2572793e-03
 -1.1291955e-02
  1.2112628e-02
  2.2542041e-02
  7.9042688e-03
  7.5946230e-01
  1.5813373e-03
  1.8478567e-02
  6.4793833e-02
 -4.5724116e-02
  5.6893979e-03
 -2.9317649e-02
  1.0251414e-02
  1.4487557e-02
  2.2187229e-02
 -1.9283436e-02
 -3.0645337e-02
  1.4671660e-02
  1.2813336e-03
 -5.2024849e-02
  1.7008641e-03
 -6.1556865e-02
  1.2299642e-02
 -8.8563086e-03
  1.1369602e-03
  5.6500421e-03
 -8.4251026e-03
  2.8262008e-02
 -1.4635308e-01
 -9.6810043e-02
  1.7588690e-02
 -9.2084557e-03
 -1.1562354e-02
  1.1591308e-02
 -5.4440077e-02
 -2.6794244e-02
  9.5816962e-03
 -5.8243168e-03
 -3.4683544e-02
 -2.7681997e-02
 -2.9153062e-02
  6.5667778e-03
  7.4302387e-01
 -7.2326711e-03
 -1.6936430e-01
  2.5339852e-04
  2.2400102e-02
 -2.6085140e-02
  3.3041581e-03
  3.2875076e-02
  5.3589029e-05
 -5.4987457e-02
 -7.2281831e-03
 -1.0388052e-03
  1.7249944e-02
 -1.4575468e-02
  1.9539993e-03
 -1.0491336e-02
 -2.2822233e-02
 -1.5997963e-02
  2.1458650e-02
  1.4369286e-02
 -1.0270599e-02
  3.6894139e-02
  2.1592646e-03
 -4.6527442e-03
  9.1212324e-04
 -1.4950787e-02
  2.9306260e-03
 -7.0719660e-04
  1.4597635e-02
 -1.1626782e-04
 -7.3835952e-03
  3.5060912e-02
  3.0303714e-01
  3.4906130e-02
  2.3051626e-03
 -3.2566187e-03
 -2.2194134e-03
 -1.7862833e-03
  2.3424461e-02
  6.0524251e-02
 -4.6676610e-02
 -4.5190714e-02
 -1.8144127e-02
 -3.0499198e-02
  9.4571291e-03
 -7.6125428e-02
  1.2047625e-03
 -7.3171472e-03
 -1.3115709e-02
 -2.2679105e-02
  4.0049244e-02
  7.4400008e-02
 -2.8154474e-02
 -5.4660942e-03
  3.3985291e-02
  2.9016202e-02
 -1.5546324e-02
 -1.6644184e-02
  2.0703992e-03
  1.2341037e-03
 -1.0769066e-04
 -1.9761493e-02
  5.3181816e-02
  1.2969451e-02
  1.2185667e-02
 -1.3858655e-02
 -8.9469049e-03
  5.2532963e-03
  2.3701964e-02
  3.3109438e-02
  3.4109142e-02
 -1.2304941e-02
  4.3979748e-03
  2.5849525e-02
 -1.8984016e-02
 -1.9430490e-02
 -1.8461464e-02
 -5.5167444e-02
  9.8710554e-04
 -1.2547296e-02
  1.8281052e-02
 -1.5927318e-02
  1.2483485e-02
  4.7554667e-03
 -6.7540412e-03
 -1.4645973e-03
 -1.4662768e-02
 -6.3292636e-03
  2.7035572e-02
 -1.9572154e-02
 -1.7797083e-02
 -6.1916908e-05
  1.4398799e-02
  2.4593662e-02
  4.1373819e-02
  2.6640592e-02
  1.2329429e-02
 -1.2075489e-02
  2.4792725e-02
  2.3524598e-03
 -3.6977287e-02
 -1.8034714e-03
  2.5620047e-02
  9.0218708e-03
 -2.7080843e-02
 -1.4491587e-02
 -1.9922458e-02
 -7.5725652e-02
 -5.6799902e-03
  2.1215606e-01
 -2.3681390e-01
 -6.1472457e-02
  3.5701981e-03
  1.2940557e+00
 -1.3670799e+00
  9.2305630e-02
 -6.9645923e-03
  6.2138444e-01
  2.0645332e-01
  3.1224493e-02
  1.9844860e-01
 -1.3618857e-02
 -1.8670906e-04
  9.4162107e-01
  1.4282552e-02
 -4.4085411e-03
 -1.7016567e-02
 -1.6226360e-01
  4.8713543e-02
 -7.1684562e-04
 -2.5566500e-01
 -1.8798773e-01
  2.1845376e-01
  2.9366904e-01
  1.0120130e+00
 -6.9592901e-02
 -1.7864013e-01
 -6.2312420e-02
  7.1311556e-02
  5.0891608e-02
 -2.6161590e-01
 -1.3477398e-02
  1.6549781e-02
  1.1967715e-02
  1.7053457e-02
 -2.4700839e-02
 -2.6690267e-02
 -1.2020957e-02
  2.9687988e-02
  5.1673189e-02
 -1.3559463e-03
 -3.9334808e-02
 -1.3210016e-02
  3.1852096e-02
  3.7016768e-03
 -6.9964314e-03
 -3.7202265e-02
 -1.0206879e-02
  1.6874095e-02
 -1.3067998e-03
 -1.0702007e-02
 -4.3679997e-03
  4.9068656e-02
 -6.7040031e-03
 -2.0204715e-02
 -8.8712610e-03
 -4.5567760e-03
 -1.7604580e-03
  2.4839649e-02
  6.2957268e-05
  4.6252224e-04
  3.7306283e-02
 -2.4501638e-02
 -1.0668839e-02
  8.2787669e-01
  2.0711672e+00
  4.9735989e-02
 -4.0170647e-02
 -4.4486016e-02
 -1.3565052e-01
  3.9597485e-02
  3.2024404e-03
 -1.3323915e-03
  6.7507958e-01
  3.2882217e-02
 -5.7770484e-03
  2.2061715e-02
  2.3123302e-01
  1.4468162e-01
  4.8573259e-03
  1.2431947e-01
  7.6982155e-02
 -6.5414762e-01
  5.5953156e-02
 -2.1280771e-02
  3.0014946e+00
  4.8225734e-01
  3.0080818e-02
 -4.7427930e-02
  1.5120381e-02
  2.3959773e-02
 -4.7683297e-03
 -3.0663859e-02
 -7.9588424e-03
 -3.2568444e-02
 -3.1880686e-01
  3.5933486e-01
  6.6912037e-01
  3.8968408e-01
  1.0420647e+00
  3.1586853e-01
  3.1495206e-02
  2.9476011e-02
  2.1429783e-01
 -7.7990666e-02
 -4.8693962e-02
 -6.8535521e-03
  1.8360985e-02
  2.1609105e-01
 -8.4776103e-01
  5.4919887e-01
  3.5178056e-01
  9.0600133e-01
 -2.7334401e-02
  1.0161484e+00
 -1.4219645e-02
  1.0025799e+00
 -2.9076597e-02
 -5.4353219e-01
 -3.2503912e-01
 -9.3429452e-03
 -1.4695309e+00
  3.9022729e-02
 -1.3260021e-02
  2.1126281e-02
 -1.6618511e-02
 -1.2474167e-01
  1.6693647e-03
 -1.5152072e-03
  4.1926932e-02
 -3.5558213e-02
 -1.0169426e-03
  1.0610041e-02
  7.4378033e-03
  9.2735915e-03
 -2.1600058e-02
 -2.7957722e-03
  6.9643557e-03
  4.2192314e-02
 -5.8830888e-03
  1.7314775e-02
  6.7668646e-03
  1.5998108e-02
 -2.4832211e-02
  1.8825287e-02
  9.3541807e-03
  3.7132995e-05
  6.6695977e-03
 -1.4832061e-03
 -3.5554143e-03
  5.9178853e-03
 -5.7254750e-03
 -9.9257715e-03
  1.5252649e-02
  5.1065115e-03
  1.6523204e-03
 -3.7313963e-04
 -4.3034166e-02
  3.0388081e-02
  2.4771206e-02
  1.8220773e-02
  9.2120199e-03
  2.2728309e-02
 -9.3907462e-03
 -6.4280957e-02
 -1.4427741e-02
  4.7426946e-03
 -6.7317998e-04
  4.7049494e-03
 -3.6749357e-01
  5.1961918e-03
  1.3976082e-03
  3.8257448e-03
  9.1075310e-03
  3.6804159e-03
 -1.9673867e-02
 -3.2797098e-02
 -2.7268702e-02
 -1.1021339e-01
 -1.7737192e-01
  8.6084157e-03
  2.2386007e-02
  5.9725255e-01
  9.4337314e-02
 -1.3244732e-01
  2.1925741e-01
  3.2161986e-03
  5.9520841e-02
 -4.9521275e-02
  1.2841952e-04
 -2.8502446e-02
  7.3112249e-03
  2.5421022e-02
  1.2174821e-02
  3.6217637e-02
 -7.3038498e-03
 -1.5198881e-02
 -9.1946078e-04
 -9.4795032e-05
 -2.4337010e-02
 -2.7376892e-02
  5.7023615e-03
 -1.2524384e-02
  1.2962887e-02
 -6.0724787e-02
  6.0201352e-03
 -2.9826634e-02
 -5.0923997e-03
  1.7533617e-02
  1.9803455e-03
 -7.8214277e-03
 -5.3255539e-02
  2.0802306e-02
 -4.6165860e-03
  1.5990529e-03
 -2.1928260e-02
  1.9144019e-02
  4.6814281e-02
 -1.2676400e-01
  4.8190549e-02
 -2.1230185e-02
 -1.1142063e-02
  7.1283407e-03
 -7.6955453e-02
 -9.9218474e-04
 -1.5691431e-02
  1.3405588e-02
  5.6952927e-02
  1.1949190e-03
  1.2779500e+00
 -1.5258009e-02
 -6.9579459e-03
  2.5707562e-03
 -9.1158878e-03
  1.4124342e-02
  7.5150834e-04
  1.0847939e-02
  2.8376105e-01
  2.2863774e-01
 -2.1865746e-02
  1.3083385e-02
  2.1691821e+00
 -1.1856180e+00
 -2.2887357e-02
  4.4226587e-01
 -9.2830090e-03
 -3.9519690e-02
 -1.3661990e+00
  3.3331983e-02
  9.5398575e-02
 -2.8815830e-02
  5.3457919e-05
  8.7237284e-03
  3.0332408e-03
 -2.5790559e-02
 -1.0148416e-02
  4.4656601e-02
  3.3816367e-02
  2.0163381e-02
  7.7934810e-03
  7.7118250e-03
  3.7033774e-02
 -2.2581493e-02
 -3.5812914e-02
 -4.6648204e-04
 -2.7008235e-04
 -6.6705379e-03
  3.2001178e-04
 -1.6349314e-01
  7.4626245e-02
 -9.1263605e-03
  8.9604026e-03
 -4.7798702e-03
  2.0387759e-02
  1.9796364e-02
 -2.7324811e-03
 -2.2355916e-02
 -1.9455194e-02
  8.2858438e-03
 -2.4897049e-03
  3.5111524e-02
 -6.5026013e-04
 -1.4151216e-02
 -5.2924952e-03
 -1.2384139e-03
 -4.3472857e-03
 -2.1060530e-02
 -7.7959853e-01
  6.0484016e-01
  1.1707970e-01
 -3.6050963e-01
 -1.6671290e-01
  5.1631078e-02
 -5.8501966e-02
  3.0460777e-02
  3.5371909e-01
  3.3336636e-04
 -2.5502610e-01
 -2.4793649e-02
  1.9379970e-02
 -1.0433250e-02
  1.0530423e-01
 -2.5167397e-01
  4.8402351e-01
  4.9711052e-02
 -9.2606433e-03
  2.1475065e-01
  1.0009957e-01
 -2.4370590e-01
  1.4683980e-01
  8.9641958e-01
 -4.2134264e-01
 -4.3331432e-01
  5.5367589e-02
 -3.3908486e-02
  7.6804729e-03
  1.7778652e-02
 -1.7379187e-02
  3.7446493e-04
  1.2886730e-02
  6.7163701e-03
 -7.6102965e-02
  8.9233248e-03
 -5.1745635e-02
 -8.3563710e-03
  6.5357289e-03
  5.1976129e-02
  1.8097639e-02
  2.2403211e-03
 -1.4810864e-02
 -6.9245067e-03
  2.2243682e-02
 -5.8769394e-02
  7.3825424e-03
  2.7470522e-02
  4.6987753e-02
  7.8239795e-03
  1.8341785e-02
 -1.9206211e-03
 -3.1939805e-02
 -7.9915710e-03
  1.5816228e-02
  1.0407113e-02
  2.8001575e-03
  2.2666631e-02
  2.1059962e-02
  3.7125982e-02
  2.4811804e-02
 -6.6127844e-02
  3.1708646e-01
  2.3119661e-01
 -7.8087583e-02
  1.2634796e-01
 -9.2475563e-03
  2.3223817e-02
 -5.7031229e-02
 -1.3778999e-01
 -4.1257912e-01
 -1.2891778e-01
 -3.7071567e-02
  2.0611675e-02
 -2.2496939e-01
  7.0881611e-03
  4.7451589e-02
  6.3146308e-02
 -2.8937260e-02
  2.3723219e-02
 -5.6532980e-03
 -7.1509436e-02
  2.0477958e-01
 -1.2705505e-02
 -2.2900013e-02
  1.2792449e-02
 -1.0700519e-03
  7.8016460e-02
 -4.6933331e-02
  1.0028935e-01
  5.8072605e-03
  5.6752425e-02
  1.8908177e-02
 -9.9811824e-03
  1.1279568e-02
  2.9767625e-02
 -5.8408904e-01
  5.5637788e-03
  6.6359240e-01
 -8.2193995e-03
 -4.0449372e-01
  1.0356737e+00
 -1.0233649e-01
  1.1303778e+00
  4.8083910e-03
 -4.9510074e-01
  1.1927190e-01
  5.6741017e-01
 -2.9314569e-01
 -5.7437778e-01
  2.3390250e-01
  1.4703225e-03
 -4.6289727e-02
  8.0260215e-03
 -5.8265102e-01
 -4.4852935e-02
 -1.1418626e-02
 -1.9677767e+00
 -2.2802030e-01
 -9.8867220e-01
  3.1577747e+00
 -5.6012832e-02
 -6.8880361e-01
  1.1486259e-01
 -1.7923612e-02
  1.4992370e-02
  1.3837411e-02
  3.0312775e-02
 -1.6422311e-02
  1.2495963e-02
 -5.8657009e-02
  9.0249898e-03
 -1.2374136e+00
  1.8948721e-02
  6.4116907e-01
  2.6626611e-01
  1.6271482e-01
  6.5461293e-02
 -6.8667531e-02
 -5.1961452e-01
  5.8216024e-02
 -1.0381078e-02
  3.5659693e-02
  1.5298923e-02
 -2.0382775e-01
  3.0990133e-01
 -1.8576391e-01
  3.6561191e-01
  1.1841382e-02
 -4.0874156e-01
 -8.3225667e-02
 -1.6254799e-01
  1.0426174e+00
 -4.5955279e-01
 -1.2414563e+00
 -3.4352951e-02
  5.3473443e-02
 -1.7378712e-02
 -1.4884483e-02
 -2.4157171e-03
 -7.3885098e-03
 -1.1892257e-02
 -4.5917973e-02
 -2.4913908e-03
  5.0765630e-02
 -5.6912298e-03
  2.5064793e-01
 -5.9112944e-03
 -5.9101649e-02
  1.8724204e-04
  3.4989096e-02
  6.0174600e-03
 -8.5069239e-03
 -9.0324068e-03
 -1.1932681e-03
  3.5075846e-03
  2.1093281e-03
  2.1652669e-02
  9.5621265e-02
 -2.7105805e-02
 -1.5554115e-02
 -8.1867450e-01
 -8.7811567e-02
 -1.6291507e-02
 -1.1062281e-02
 -6.6657417e-02
 -4.0154222e-02
 -6.5645176e-01
 -2.1790341e-02
  4.4348914e-02
 -1.4215793e-02
  2.2075013e-03
  3.8804185e-02
  3.9989084e-02
  8.3884737e-03
 -1.0290523e-03
  2.7846383e-02
  8.7579815e-03
 -4.4503476e-02
 -4.3669183e-02
  1.5536604e-02
 -2.1838389e-02
  5.5300862e-02
  1.0766218e-02
  1.3165278e-02
 -9.0976870e-03
 -2.0185092e-02
  5.4951254e-02
  2.1532629e-02
 -3.8186464e-02
  2.2606493e-03
  2.2804823e-02
  2.3925675e-02
  2.4068961e-02
  1.4160119e-02
  3.1851232e-02
  2.4264831e-02
  2.5430493e-02
  2.8544305e-02
 -2.1380302e-03
 -4.2574992e-03
 -6.5689981e-02
 -1.3199479e-02
  3.9042118e-03
 -8.6661363e-03
 -1.0250591e-02
  2.1662435e-02
 -8.0269569e-04
 -2.5331305e-02
 -6.7903936e-02
  1.2236202e-02
 -2.1267070e-02
  2.2216754e-03
  1.2290392e-02
 -2.7691498e-02
 -3.3985771e-02
 -1.5001959e-03
 -1.8906502e-02
  2.3186146e-01
 -3.8539361e-02
  3.1939538e-03
 -1.1300187e-03
 -3.6255992e-03
 -4.4155279e-03
 -2.7598161e-03
  1.1008213e-02
 -2.8280276e-04
  5.8887411e-02
 -8.9888200e-03
  8.2992427e-03
 -4.3419715e-02
 -1.8083327e-03
 -2.0698758e-02
 -1.3081331e-02
 -1.4901446e-02
  1.7513441e-02
 -1.6659926e+00
  9.5205462e-01
 -2.0077407e+00
 -9.0545410e-01
 -7.4336043e-04
 -1.5792912e-01
 -6.0879517e-01
  8.7487894e-01
  1.9279343e+00
  5.4877460e-01
  5.6727636e-01
  1.6858438e+00
 -2.4211524e-01
  2.5733821e+00
 -2.2691858e+00
  2.4384909e+00
  2.7052829e+00
  8.9143938e-01
 -1.7062108e-01
 -1.2719889e-01
  1.2904067e-01
  7.0594043e-01
  1.4279057e+00
 -2.0188394e-01
  3.0581230e-01
 -1.1625141e+00
 -4.4254544e-01
 -3.7113374e-01
 -3.4396017e-01
  1.4473264e+00
 -6.2805784e-01
  5.3666186e-01
  9.3376479e-04
 -1.8993367e-02
  6.9405839e-02
  1.0975025e-04
  2.1753838e+00
 -1.6511019e-01
 -8.7485490e-03
  4.2335150e-01
 -2.0537851e-03
  2.8623374e-02
 -1.5612128e+00
  3.7743500e-03
 -8.4962584e-02
 -3.5297792e-02
 -3.9470438e-03
 -1.8615364e-01
  2.8783911e-01
  3.3535931e-01
 -2.2394779e-01
  1.2755917e-01
 -1.2974970e-01
 -3.1769934e-01
  1.1318140e-01
  6.4704083e-02
 -5.0385314e-01
  1.8529259e-02
  7.3072207e-03
  1.9084984e-02
 -3.6988497e-02
  8.3236909e-03
 -7.8257592e-03
 -4.6025541e-01
  4.7946751e-02
  1.0188671e-01
 -7.7469181e-03
  1.1580171e-01
  1.0682907e-01
 -1.3426450e-01
 -6.7771369e-01
 -5.0857735e-01
  6.0281656e-03
 -2.5365832e-01
 -9.4410449e-01
  2.8593260e-01
  3.3281673e-02
  4.7214055e-01
  7.9923429e-02
  5.9061992e-01
  1.2362355e-01
  5.4259159e-02
  3.2924613e-01
  1.7754462e+00
  1.2515095e+00
  1.2134228e+00
 -4.7059678e-02
 -3.7375662e-01
  4.0045455e-01
  1.3051521e+00
 -1.2677339e+00
  4.1781574e-02
  1.9233437e-02
  1.5632084e-01
  1.1996736e-02
  5.9057206e-01
  1.8858904e-03
 -1.3877278e-02
  1.8423153e-02
 -7.6283012e-03
 -1.3619070e-03
  3.0667910e-02
  4.7164191e-03
 -5.8153417e-02
  3.5390917e-02
 -9.1630745e-01
  2.4596214e-02
  4.9844213e-02
 -1.6022343e-02
 -1.4177088e-02
 -1.4771644e-02
  1.9710783e-03
 -1.5632132e-02
  4.9203662e-03
  5.8075264e-03
  5.3091161e-03
  1.3037748e-03
  9.6411714e-03
  7.6440553e-04
 -3.2899547e-02
 -1.4415724e-02
 -1.7467270e-02
  2.6122155e-02
 -1.2521737e-03
 -1.5167720e-02
  2.1349313e-03
  5.1273260e-02
  4.7839306e-02
  6.7069876e-01
  2.3290226e-03
 -2.6203337e-01
  2.7300775e-01
  3.0693272e-01
 -1.7416114e+00
 -1.3933854e-01
  7.7101523e-01
  6.1099995e-02
  5.2887779e-01
  4.9282423e-01
 -5.2621531e-01
  9.9157859e-03
  1.4731316e-02
  2.9091939e-01
 -4.3422446e-01
 -3.7825063e-02
  1.4856714e-01
 -3.3841019e-03
  2.4190061e-01
 -2.3151325e-02
 -4.8812753e-01
  5.2772260e-01
 -4.4725534e-02
 -1.7075850e-01
  7.9766196e-01
  6.2549622e-03
 -5.7672817e-02
 -1.2158213e-01
  3.0016717e-02
  1.1205725e-02
 -4.7486376e-02
  2.4144456e-02
  1.2153359e-02
  4.9751308e-02
  1.0160992e-01
  3.2546592e-03
 -5.0855356e-01
  3.2480180e-02
  5.3815576e-03
  2.5138112e-02
 -6.1693460e-02
  1.3876820e-02
  4.4926748e-04
 -1.7675418e-02
  2.3409449e-02
  1.2444666e-02
  3.9672773e-02
  1.2242370e-02
 -4.8574735e-03
  3.4888994e-02
  2.5957068e-03
 -1.2883429e-02
  4.8798129e-02
  5.0999638e-02
  1.9651977e-03
 -3.1594422e-02
  1.5050661e-02
  2.0130415e-02
  1.8781947e-02
  6.0945168e-02
  5.2495040e-03
  5.2743899e-03
 -1.4230440e-02
 -4.4816323e-02
 -6.4484081e-03
  1.4821448e-02
 -3.6388192e-02
  8.8470187e-03
  7.2708964e-02
 -1.6345514e+00
 -6.3361228e-02
 -2.3194324e-04
  1.6823225e-01
 -1.1593510e-02
  9.8148964e-02
  6.6819694e-03
 -2.4403973e-02
  9.4303647e-03
  5.0277095e-03
  3.1642970e-03
 -2.2959819e-02
 -5.4448080e-01
  6.3630752e-02
 -3.7940025e-02
  6.8139225e-02
  1.4555678e-01
  1.4133818e-02
  4.3923292e-02
  7.3870756e-02
  3.5873878e-01
  9.1270935e-03
  2.3830751e-02
  3.0422838e-02
  1.7173490e-02
 -1.9862674e-01
 -2.6905023e-02
 -1.7273946e-02
  1.9076623e-02
 -1.1447350e-02
  1.8111788e-02
 -2.6332509e-02
 -1.2951292e-02
  8.1984363e-03
 -1.6261792e-03
 -5.6641165e-02
  1.0114148e-02
  1.8610124e-02
  6.6266648e-02
  2.2679117e-02
  1.7043471e-04
 -2.8218923e-02
  2.8524153e-02
  1.3384299e-02
 -9.9233259e-04
  4.2177059e-02
  8.6613772e-03
  4.5795413e-03
  1.1849857e-03
  1.4452725e-02
  5.4773628e-03
 -6.9142985e-03
 -9.8301293e-03
 -1.4388331e-03
 -2.1767512e-02
  2.0586379e-02
  1.6911207e-02
  1.7730622e-02
 -3.6200237e+00
  1.1992215e-01
  2.8534255e+00
 -1.6776922e+00
 -2.2029188e+00
 -5.5655368e-02
  9.0580285e-01
  1.7427832e-02
 -8.8318908e-01
 -6.5331727e-01
  3.6393687e-01
 -3.6483114e+00
  1.2028985e+00
 -8.7421232e-01
 -1.6476389e+00
  6.3984561e-01
 -2.6148717e+00
 -2.4880340e+00
 -4.8696747e-01
  5.2734154e-01
 -1.6969870e+00
  2.0721593e+00
 -1.5994444e-02
 -3.5288841e-01
  9.7272389e-02
 -8.2952631e-01
 -3.5456964e-01
  4.7837962e-05
  6.7611365e-03
 -2.0808737e-01
  6.7519271e-03
  8.1122947e-01
  2.8903307e-02
  1.8788886e-03
  2.3566056e-03
  1.6069364e-02
 -9.3398690e-03
  3.3531603e-03
  2.6704730e-03
 -1.1732399e-02
  1.6144061e-02
  4.3873386e-03
  1.5711838e-02
 -8.0788666e-03
  2.7076663e-02
 -4.2156903e-03
  8.3281426e-03
 -3.7823291e-03
 -4.7356352e-02
 -2.7145899e-04
  2.3038998e-04
 -2.5148587e-03
 -2.9322177e-03
  2.7155355e-03
  5.4783397e-03
 -3.2712858e-02
 -1.9847285e-02
  1.3707006e-02
 -5.4855351e-03
 -5.9612211e-02
 -5.0334753e-03
 -4.9771299e-03
 -2.1391060e-02
  3.5063841e-03
  1.4087807e-02
  3.3336754e-03
 -7.1832663e-03
 -1.3055393e-02
  9.8435037e-02
 -4.7587048e-02
 -2.5999590e-03
  9.0441044e-04
 -4.0926475e-02
  1.0625412e-02
 -6.9704093e-03
  1.1159553e-02
 -3.1944580e-02
 -9.3124872e-03
 -4.2110649e-03
  2.0872563e-02
 -1.0767058e-02
 -3.6439564e-02
 -8.8304039e-03
 -1.4741737e-01
  3.9920896e-02
  1.3032611e-02
  3.7835974e-03
 -5.5649165e-02
  5.8055725e-03
 -9.8127741e-03
  2.1530446e-02
 -4.7575741e-04
 -2.0083709e-02
  5.3169344e-02
  4.6420638e-03
 -1.8366685e-02
 -6.9151157e-01
 -2.3670251e+00
  6.5079355e-01
  2.1107657e+00
 -1.9589651e+00
  2.0870674e+00
  2.9091993e-01
 -1.9105552e-02
  1.2130233e-01
  1.0766627e+00
  1.6937443e+00
 -1.2120250e+00
 -1.0139338e+00
  2.6698541e-02
  1.3278736e+00
  1.7620250e+00
  1.7408127e+00
  4.4712726e-02
  1.0338176e+00
 -2.1342983e+00
 -1.9497918e-02
  3.9849305e-01
  1.4150751e+00
 -2.7954271e-01
 -1.3958849e+00
  5.3338397e-01
 -5.5884427e-01
  3.3168560e-03
  3.6722684e-01
  1.8254230e+00
 -1.9889572e-01
  2.4865593e-01
  9.0548322e-03
 -1.7631833e-01
 -3.9895666e-03
  2.6337156e-02
 -5.3311650e-02
  1.0345236e-02
 -5.1348668e-02
 -2.4699330e-02
  7.8940101e-04
 -3.9415352e-02
 -4.7706731e-02
 -3.4372583e-02
 -1.8510541e-02
 -3.8635332e-02
  2.3549560e-02
 -1.5014736e-03
 -5.9302237e-02
  1.5936321e-02
  2.4691915e-02
 -1.0118442e-02
 -1.9273432e-02
 -1.7172999e-05
  3.6705784e-03
  4.2082652e-02
  9.3743335e-03
 -6.8780356e-03
 -1.9431720e-02
  6.5183216e-03
 -4.6024821e-03
  1.4075293e-02
  5.7319356e-03
 -1.2137099e-03
 -2.7768528e+00
  4.8410526e-01
  6.1506760e-01
 -7.7101064e-01
  2.9272239e+00
  1.5576300e-01
  2.0555413e+00
  7.5087631e-01
  2.4136231e+00
  3.0428128e+00
 -1.4152449e+00
 -1.5331233e-03
  6.5839267e-01
  3.2919446e-01
  1.4055116e-01
 -5.3413890e-02
 -2.2299223e+00
  8.0188429e-01
 -8.2926112e-01
  1.2790428e+00
 -1.0258912e+00
  1.1204141e+00
  1.4778051e+00
  5.6880344e-02
  4.7876051e-01
 -1.8606459e-01
 -1.2593142e+00
 -1.4530978e-01
 -1.9135860e-01
 -6.9852102e-01
  3.9901498e-01
 -6.3103008e-01
  1.7705690e-02
 -3.0910720e-03
  4.1907458e-03
  1.5398853e-02
  4.4269855e-03
  3.8579782e-04
 -2.2042810e-03
  1.2975022e-04
 -6.3996087e-03
  9.7368788e-03
 -4.5599442e-02
 -1.3236364e-02
 -1.1937540e-03
  7.4521978e-03
 -6.4822785e-03
  2.0412846e-02
 -4.8362959e-02
 -6.8652439e-03
 -2.2543428e-02
 -2.6495390e-02
 -2.0114643e-02
  1.0824041e-02
 -9.7891884e-03
  7.2587864e-03
  3.3539168e-03
 -8.6309928e-03
 -1.0845814e-02
  3.0998802e-02
 -5.1779877e-02
  1.7965443e-02
  4.2359520e-02
 -6.3181825e-02
  4.6601151e-03
  5.2576404e-02
  1.7295120e-02
 -4.0091416e-03
  5.9142884e-02
 -2.6913192e-02
  3.6511958e-02
 -2.2933739e-03
 -3.9315652e-03
  1.0667190e-02
  3.0961392e-02
 -2.7712911e-02
  3.4587558e-03
 -8.4467959e-03
  1.6141586e-02
 -7.4180779e-03
  1.0203207e-02
  1.5163340e-02
  1.9662406e-02
 -2.4325846e-02
  3.5881908e-03
  1.6133599e-02
 -3.4374271e-02
 -1.6888769e-02
  6.9904472e-03
 -2.5369776e-03
 -1.7191872e-02
  3.9474424e-03
  6.1488920e-03
 -6.5758782e-03
  5.6971661e-03
 -1.4184564e-02
 -1.8033169e-02
 -3.6064291e-04
 -1.3129345e-02
  8.0344072e-03
 -1.6070090e-02
 -8.0503309e-03
 -5.5463740e-04
  2.1519002e-02
  4.3827903e-01
  9.7559830e-03
  6.9194950e-02
  1.3596995e-03
 -8.1198104e-03
 -1.5025473e-02
 -2.4273073e-02
  6.9552056e-02
 -5.0050654e-02
  3.4768540e-02
 -9.7071128e-03
 -2.0750647e-02
 -1.5970379e-02
  9.5695928e-03
 -3.1626210e-02
 -5.2026805e-02
  7.5937711e-02
  4.8469040e-03
 -2.6037235e-02
 -3.1453066e-03
  1.3563247e-02
 -1.3675808e-02
  1.0642750e-02
  3.2621674e-02
  4.3820024e-01
 -1.0237979e-01
 -4.3435376e-02
 -1.7881684e-02
  4.1116112e-01
 -5.1361221e-01
  1.0813389e-01
  1.0720364e-01
  3.7195240e-03
 -1.8095149e-02
  6.5719970e-02
 -4.3679968e-02
  4.0966328e-03
 -1.7192954e-02
 -2.8983559e-02
 -1.8185297e-01
  1.7854715e-03
  4.9715504e-02
 -4.0162429e-02
  1.5165140e-02
  1.4747503e-01
 -9.1298625e-02
  3.2221472e-01
  1.1293016e-01
 -8.8080578e-03
  6.4976551e-02
 -3.5160906e-03
 -4.1172240e-02
 -5.4042932e-02
 -6.3435799e-03
 -8.9413118e-01
 -3.2284757e-01
  1.8390603e-02
  1.0600586e-03
 -2.6134627e-02
 -4.5043007e-02
 -9.8016620e-02
  5.5054255e-02
  1.3883825e-01
 -2.7765330e-02
  1.1641413e-01
 -2.2610823e-02
  3.9254597e-01
 -4.7842884e-03
  5.4281978e-03
 -5.1721134e-03
  9.0778973e-03
 -1.4138420e-03
 -8.6052092e-03
 -2.3556570e-02
 -2.7906353e-02
  3.0828446e-01
  3.1485349e-01
 -8.7005746e-01
 -6.8219170e-02
  2.3179491e-01
  1.6271502e-01
  4.9602743e-02
 -1.3216795e-01
  2.5141044e-03
 -4.8937384e-02
  4.7447111e-02
 -2.1521095e-03
 -8.3382271e-02
  9.0045553e-01
  3.7098879e-01
 -2.2087023e-01
  3.0965915e-01
  3.3371413e-01
 -3.0954379e-01
 -1.7221929e-01
 -9.0913717e-03
  1.5944380e+00
 -4.6526885e-01
  3.0339280e-01
 -9.2691578e-02
 -3.3772364e-02
  6.7492770e-03
 -2.5141028e-01
  1.8204234e-03
 -1.0040163e-02
 -1.0444815e-02
  2.2984011e-02
 -6.9890413e-03
 -8.6409301e-01
 -2.8311083e-01
  2.1554212e-01
 -3.4970817e-01
 -2.2029197e-01
  9.9442971e-01
 -3.2020068e-01
  1.7729821e-03
  4.8576011e-03
  4.1901410e-02
  6.6362922e-03
  1.6584480e-02
 -2.7293323e-02
 -1.6893861e-01
 -2.2380650e-02
 -8.3342695e-01
 -1.1123808e-01
  4.0492907e-01
 -1.2691842e-01
 -2.7701938e-01
  5.2574444e-01
 -2.2573316e-01
  6.0995776e-02
 -1.4362535e-01
  1.7937320e-01
  5.4947656e-02
  1.7302646e-01
  4.5563973e-02
 -1.0360223e-01
  2.9006308e-01
 -1.1794246e-01
  2.0527335e-01
  4.5280752e-01
 -2.5942394e-01
 -2.8679490e-01
 -5.9004474e-01
  5.1669788e-01
  3.4239495e-01
 -3.6004260e-01
  2.7277924e-02
 -8.9683747e-03
  1.0807307e-02
 -2.4845567e-02
  5.8332431e-01
  2.0817071e-02
  7.6062791e-03
 -1.1858188e-02
 -1.7890757e-02
 -1.6680522e-02
  3.4814909e-02
  2.3660138e-02
 -1.5534742e-02
 -6.1920076e-03
 -1.3829099e-02
 -1.6772392e-01
  2.5486587e-02
 -9.6998634e-03
  2.7147770e-02
 -2.5576383e-02
  7.5072120e-03
 -2.7063278e-02
  9.7329676e-04
 -1.2324644e-02
 -4.9235122e-03
  5.1523332e-04
 -1.8287418e-02
  5.2695363e-03
 -1.4958543e-03
 -3.4334920e-02
 -5.9710806e-03
 -1.2200747e-02
 -1.8349918e-02
  2.8782617e-02
 -8.3172927e-03
 -3.5783794e-02
 -9.5613804e-03
  2.7941408e-02
 -1.8709451e-02
 -3.5977867e-01
  5.7196330e-02
  1.7444270e-02
 -2.2257656e-02
  1.8847091e-01
  2.4660997e-01
 -8.7713110e-01
 -4.8325574e-01
 -5.9795839e-01
 -3.3407412e-03
  4.2055631e-01
 -1.7950760e-02
  3.5489030e-02
 -4.4669038e-01
  4.0158067e-02
 -2.0620985e-02
  1.6248638e-02
 -4.4345260e+00
 -1.3802212e-01
 -6.9852680e-01
  3.6978441e-01
 -2.7534029e-01
 -5.5583286e-01
 -4.0917578e-01
  2.6147028e-03
  2.3324084e-02
  3.9723464e-03
 -1.4262749e-02
  1.6720532e-02
 -3.6125224e-02
 -4.5445614e-02
  5.2499808e-03
 -3.1648405e-02
  1.9562496e-02
  1.4562060e-02
  3.1874079e-04
  3.8641512e-02
 -3.7980473e-04
  2.1753671e-02
  1.8545879e-02
 -2.6066693e-02
  3.0665468e-02
  2.1245237e-02
 -1.3053293e-02
 -1.4514775e-02
  8.4129097e-03
 -6.5950854e-03
  6.9685690e-02
 -2.3950290e-02
 -8.8676680e-03
  7.4516803e-02
 -4.4804212e-02
 -1.2044400e-03
 -3.3385068e-02
  4.0391888e-02
  5.4552215e-03
 -5.8306925e-02
  2.3784116e-02
 -1.8076140e-02
  1.2595944e-02
  2.9892346e-02
 -3.1152181e-02
  3.0931616e+00
 -3.9171245e+00
  3.6416268e-01
 -4.4396024e+00
  5.8417000e-02
 -3.4867485e+00
 -2.2460926e+00
 -1.9068107e-01
  2.9343563e-01
 -1.5493417e+00
 -7.3903608e-01
 -2.0147409e+00
  2.1987559e-01
  9.0301317e-01
 -4.9380255e-01
  9.8455197e-01
 -1.8950785e-03
 -9.8790571e-02
  1.1846275e-01
 -1.5268387e+00
 -1.3215094e+00
 -3.1589469e-01
  9.4451183e-01
  7.5226530e-02
 -9.2466289e-01
 -1.0647781e+00
  7.1910429e-01
  2.5664651e-01
 -7.8609265e-02
  5.3578717e-01
 -1.0386391e+00
  3.6970261e-01
  8.9905979e-03
  1.7222736e-02
 -4.1126423e-03
 -3.6495202e-03
 -1.3759098e-02
 -1.7887950e-02
 -4.9625192e-02
  7.5076721e-03
  1.9017156e-02
 -8.7569533e-03
  2.4278327e-03
  2.6768576e-03
  1.3383254e-02
  4.5533661e-02
 -2.8327029e-02
 -3.2384273e-02
 -4.4786640e-02
 -1.9717184e-03
 -2.9507536e-02
  1.7234484e-02
  6.3542747e-03
 -2.2779945e-02
  2.4606233e-02
  1.3965990e-03
 -3.1878304e-02
 -8.4000239e-03
  1.7333544e-03
  2.0673599e-03
 -1.6861370e-02
  1.0709832e-02
  4.1164085e-02
 -4.5338802e-02
  3.2628658e-03
  1.7599136e-02
  5.7534575e-03
 -2.8543172e-03
 -1.4108203e-03
 -3.3065133e-02
  2.8398285e-02
  5.0415583e-02
 -2.6684342e-04
  5.6271121e-02
 -3.1972677e-02
 -3.3774905e-02
 -4.8124949e-03
 -1.3651653e-02
  2.3890403e-03
  2.2567853e-03
  5.5446785e-02
  1.0379668e-02
 -2.1469255e-03
 -2.2102923e-03
  2.0877047e-02
 -2.8425699e-02
  1.4615689e-02
  4.2719957e-03
  1.6239781e-02
  1.7534678e-05
 -5.2261755e-02
  1.4581859e-02
 -7.6611796e-03
  5.0565891e-02
  6.8833753e-03
 -1.8674158e-02
 -4.3469956e-03
 -8.3236489e-03
  2.0057041e-02
  1.8598635e-02
  9.7948173e-03
  7.3345820e-04
  3.5248175e-02
  2.2188537e-02
  2.7989758e-02
  4.6635505e-02
  1.3879752e-02
  2.8096903e-02
 -8.5817510e-03
  1.5900591e-02
 -8.3512580e-03
 -2.9063901e-02
 -1.2491796e-02
  3.5842378e-02
 -2.2355352e-02
 -3.3363937e-03
  6.8247300e-03
 -3.8414791e-01
 -8.7558208e-03
  6.2352470e-03
  3.2779362e-02
  5.4721022e-03
 -1.2910463e-03
 -1.5364771e-02
  1.1357418e+00
 -2.7143890e-03
  4.1553690e-03
 -3.1960853e-03
  3.3429065e+00
 -4.5345506e-01
  2.4879167e+00
 -2.6194236e+00
 -1.2674554e-01
 -2.8593619e+00
 -1.6068085e+00
 -1.6330495e+00
 -3.5000715e-01
 -2.0387299e+00
  7.0903873e-01
  1.6108775e+00
 -9.4381183e-01
 -6.9143102e-03
  1.3592950e+00
  2.7717948e-03
  1.2108413e+00
  7.2467017e-01
  2.1226161e+00
  5.9296888e-01
 -3.3171177e-01
  4.2159486e+00
  2.4170822e-01
  9.0214467e-01
  6.1036581e-01
 -7.5314754e-01
  2.2555420e+00
  9.2256069e-01
  8.2927443e-02
 -2.3833249e+00
 -2.0856179e-02
 -2.7693755e-03
  2.6454182e-02
  1.0509535e-03
  2.2636615e-02
 -7.8771219e-02
  5.5587187e-02
 -3.5994049e-02
 -4.5453612e-02
 -3.0070284e-02
  1.2357076e-02
  1.9735300e-03
 -4.8456611e-03
  3.6460374e-02
  1.2999381e-03
  5.1421326e-02
 -5.8989998e-02
  5.0267819e-02
 -2.4094000e-02
  2.2322744e-02
  6.1644007e-02
  2.6191704e-02
  3.2779943e-02
  2.1807602e-02
 -3.5772923e-02
  4.9344432e-03
  1.8334315e-03
 -2.9869588e-02
  8.2145529e-03
 -4.7623776e-03
 -7.3484294e-03
 -1.4817640e-02
  6.0361117e-02
 -1.1511132e-03
 -1.3170422e-02
 -5.9324205e-02
 -1.1154423e-02
  5.8088545e-03
  7.6302299e-03
 -2.7439782e-02
  2.1438731e-02
 -1.1539584e-02
 -4.8597835e-04
  1.2831649e-02
  1.1178764e-01
  7.4689342e-03
 -8.6089298e-03
 -8.2232300e-03
 -7.5578935e-02
  4.4185881e-02
 -4.5979405e-03
  1.7638143e-02
 -1.5708718e-02
  3.6980075e-01
  6.0035527e-02
 -6.7540361e-03
  3.4800407e-02
  1.1447432e-02
  4.1387830e-02
  8.7963947e-04
 -6.5748496e-03
 -3.4587033e-02
 -2.3679726e-03
 -2.2776157e-02
 -1.9787775e-02
 -4.7516460e-03
 -3.4476347e-02
  4.1234079e-03
 -2.1666871e-02
 -1.7079169e-02
 -1.1834037e-02
  2.5267592e-02
  2.4681520e-02
 -3.3944711e-02
  5.7703932e-04
  6.8201758e-02
  4.3313331e-03
 -5.5255048e-02
 -4.9868591e-02
  4.7614113e-03
 -3.3543434e-02
  2.9361041e-02
 -3.9006588e-03
 -5.7141035e-04
 -2.0693837e-02
  1.8122857e-02
  6.3342303e-02
  5.1967215e-02
  2.0755433e-02
  1.0274250e-02
 -2.7980797e-02
 -3.6254168e-02
  8.2933679e-03
  3.8188331e-02
  8.7224580e-03
  2.0863952e-02
  1.4636096e-02
 -2.2013986e-02
  1.5446728e-02
 -6.9434033e-03
 -1.2878149e-02
  1.6841084e-02
 -1.3419991e-02
  8.5047511e-03
  1.1268344e-02
  6.6987221e-04
  6.4913515e-04
  3.2022439e-02
 -8.9787990e-03
  2.9657379e-02
 -6.0797469e-03
 -1.1525252e-02
  1.0427268e-02
 -4.1762564e-02
 -3.1065751e-02
 -1.8618712e-02
  1.8822826e-02
  6.1683306e-03
 -3.1634967e-03
  1.6272629e-02
  1.9792784e-03
 -4.1906394e-02
 -2.7519725e-02
  1.0618193e-05
 -9.1939243e-03
  1.1553438e-02
  2.5858043e-02
 -1.5082937e-02
  1.2542744e-02
 -5.4776859e-03
  1.0645065e-02
  5.5120233e-02
  1.4640351e-02
 -4.9315292e-02
  4.6654429e-02
 -8.8413144e-03
  1.4310697e-02
  7.5391247e-03
 -1.6795240e-02
 -3.2040730e-02
 -3.7122846e-02
  5.3217160e-03
  4.1176300e-02
 -2.7236532e-02
 -1.6519036e-02
  4.9045525e-02
  1.5213806e-02
  2.0458452e-02
  3.5854798e-02
  2.9591188e-02
  4.6739806e-03
  2.2613739e-03
  1.9678319e-02
  1.3796819e-02
  2.2425938e-02
  2.1420451e-02
  2.9938497e-02
 -2.8736547e-03
 -1.0064458e-03
  4.0642481e-02
  5.6583388e-03
  8.3142258e-03
 -5.9888247e-02
  6.4798072e-03
 -2.6709153e-03
 -2.7314346e-02
 -1.5133478e-03
  1.4539486e-02
 -1.1384934e-02
  1.7149473e-02
 -6.2110047e-03
  8.6051719e-03
 -3.0297050e-03
 -1.5907164e-03
 -7.1167904e-03
  1.0121432e-02
 -3.5273336e-02
  6.2292479e-02
 -2.5769353e-02
 -7.1595046e-03
 -4.9590005e-04
 -4.7862930e-03
  1.2366118e-02
 -2.4978714e-02
  2.2684833e-02
  5.0327759e-03
 -1.5279408e-02
 -7.1502090e-03
  1.0212732e-02
 -7.8348048e-02
 -3.4869503e-02
  1.1154368e-02
  1.1811003e-03
 -3.9707832e-02
 -8.4097284e-01
 -1.7709081e+00
  1.2661086e-01
 -6.6393358e-01
  3.2735314e+00
  3.7924936e-01
 -4.9703423e-02
 -8.7034412e-02
 -3.5256380e-01
 -5.3431427e-01
 -8.2094530e-03
  3.9653852e+00
  6.8086050e-03
  9.2939839e-02
  6.2445754e-01
 -2.4334522e-01
 -2.0352049e-01
  1.5448635e+00
  4.2357493e-02
 -3.0066347e+00
 -1.3226646e-01
  3.2316369e-01
  6.5851067e-03
 -5.8106750e-02
  8.8297933e-01
 -1.0650166e+00
 -4.6583328e-01
 -1.4995958e-01
 -6.2454898e-02
  7.4143881e-01
  2.3382058e-02
 -6.2388834e-02
 -1.6420224e-01
 -7.4364267e-02
  7.4035573e-01
 -2.2572912e-01
 -3.6620424e+00
  1.4742787e-01
 -1.4126627e-01
 -1.2662385e+00
 -3.4149826e-02
 -1.0540228e-01
  1.1758219e+00
 -3.4057229e+00
 -6.3507287e-03
 -6.3994668e-02
 -2.5907037e-04
  2.9541481e-01
 -4.3631247e-01
  1.2681509e+00
 -8.9340085e-01
 -8.1863564e-01
  1.9860755e+00
  1.3836699e+00
 -1.8342414e+00
 -1.8910748e-01
  8.8102993e-04
 -2.7560066e-02
 -6.6570765e-01
  1.1917639e-01
  2.8779945e-01
  1.7464377e-01
  3.2037102e-02
  3.9742664e-02
  3.7756118e-01
 -3.0718917e-02
  7.5814766e-03
 -3.4321065e-03
 -3.0932648e-03
  8.7032532e-03
  1.5569124e-02
 -3.8526789e-03
 -4.0843438e-02
 -1.9588104e-02
  1.4837150e-01
  2.7257325e-03
 -2.5729641e-02
 -1.9211840e-02
  3.4599319e-01
  2.1869324e-02
 -3.5163200e-01
 -7.3570006e-02
  7.4673858e-03
  1.2902799e+00
  1.9203331e-02
  6.8492943e-01
 -3.1215996e-03
 -1.2337402e-02
 -1.0817707e-02
  1.1070154e-02
 -6.8082720e-01
 -1.7878182e-02
 -7.0183221e-03
  1.2410328e-02
 -2.1903398e-02
 -1.2172678e-02
  1.4811116e-02
 -3.5386998e-02
  1.4933756e-02
 -9.7756861e-03
 -7.0482842e-03
 -1.2347625e-02
  3.9944831e-02
 -4.6663716e-02
  7.8640552e-03
 -2.1067099e-03
  2.5357395e-01
  1.3059929e-02
 -1.3612154e-02
  7.0149368e-03
  4.0841922e-02
  1.1892941e-02
  3.8124878e-02
 -1.8457226e-02
  8.9299269e-03
 -3.6369667e-03
 -2.3071434e-02
 -2.5238311e-01
  2.7724728e-03
  7.0090038e-03
  6.0988016e-02
  4.3658905e-02
  3.1797897e-02
 -3.2360516e-03
 -1.2574900e-02
  1.1665028e-03
 -2.7988132e-03
  2.6421780e-02
 -1.3895682e-01
 -8.4664881e-02
  2.6254231e-02
 -1.1398620e-02
 -1.4205477e+00
  8.8998228e-02
  3.3945434e-02
  5.3317052e-01
  3.4902561e-02
 -2.1958608e-02
  3.7611419e-01
  4.9784273e-02
  6.6047661e-02
 -1.5505578e-02
 -1.7689941e-02
  4.3354824e-02
 -6.3117832e-01
  3.0318502e-02
 -2.4270136e-02
  4.0852728e-01
 -1.0644208e+00
 -1.7293614e+00
  3.5674565e-03
 -1.5129799e+00
  6.8073654e-01
  5.6680650e-01
 -6.3337874e-01
  1.1511775e-02
 -6.0698516e-03
  4.0512167e-02
 -7.5318734e-04
 -1.4189328e-02
 -1.4978028e-02
  2.7287722e-02
 -9.2649516e-03
 -1.9213351e-03
  2.4832653e-02
  1.0692623e-02
 -1.7821125e-03
  1.1162640e-03
 -3.1278234e-02
 -6.2303655e-03
  2.7763905e-02
 -6.1218500e-02
  7.9064779e-03
 -5.3751998e-02
  4.6730164e-02
 -2.1908741e-02
 -8.7992875e-03
 -6.4242580e-03
 -8.5021453e-03
 -3.3927162e-03
 -1.9990178e-02
  4.0749963e-03
 -2.0049751e-02
  6.5577482e-03
 -1.2951077e-02
  1.2915891e-02
  4.3718487e-02
  1.2287443e-03
 -1.9229682e-02
  5.1290393e-03
  2.8008632e-02
 -1.0199350e-02
  1.5160057e-02
  4.9678635e-02
 -1.7806523e-02
  5.0700210e-02
  4.0936582e-02
 -8.3217643e-02
 -1.2619233e-01
  9.3684292e-05
  2.5240878e-02
 -4.4460716e-03
 -3.4752768e-02
  5.6568556e-02
  2.0914447e-02
  3.4866603e-03
  8.1868311e-03
 -7.7283201e-03
 -3.0479718e-03
 -8.5974254e-02
 -3.6849300e-03
 -1.8168574e-02
 -1.4906780e-02
 -2.4346748e-02
  1.3432865e-02
  2.9117182e-02
 -2.5421174e-02
  5.8790843e-04
  2.1983525e-02
 -2.1996884e-02
 -7.6504862e-03
  4.0859836e-03
  1.0259607e-03
  4.0529892e-02
 -1.9459955e+00
 -9.2764199e-01
  8.1432901e-02
  1.2578970e+00
 -4.7309107e-01
 -1.0315692e+00
  1.8543504e-01
 -1.2124182e-01
 -6.5977067e-02
  1.0113556e+00
 -3.7369975e-01
  1.5394512e+00
  1.5282547e+00
  2.0138497e+00
 -3.7600260e+00
  1.0639573e+00
  5.8930361e-01
  3.9074019e-01
 -4.1782141e-01
 -1.1672552e+00
 -5.2173859e-01
 -7.0695913e-01
 -5.4994938e-03
  8.1507283e-01
  2.4532388e-01
 -1.2949419e+00
 -8.3980739e-01
  7.7187145e-01
  5.9415855e-02
 -7.6859787e-02
  1.6885286e-03
 -1.4222465e-01
  1.7068970e-01
 -8.4418774e-01
 -1.2714120e+00
 -3.6089006e-01
  1.6190715e+00
 -4.9669817e-01
  2.0614555e-01
 -2.4308345e-01
  9.6923962e-02
 -4.7428939e-01
 -8.7802309e-01
 -4.6680984e-01
  2.2479709e-02
  3.3158070e-01
 -1.4545644e-03
 -1.7620228e-01
 -1.6361229e-01
 -4.8788267e-01
 -3.5218850e-01
 -4.9753910e-01
  4.3391919e-01
 -6.6953695e-01
 -2.3165344e-01
 -5.3378838e-01
  1.0898396e+00
 -5.1810101e-02
 -7.8899795e-01
 -1.0318896e+00
  1.4332242e-02
  1.0573825e-02
 -2.0228568e-03
 -1.0850292e-02
  7.7458635e-02
  1.5359282e-02
  8.9166713e-01
  9.5563406e-01
  4.8935229e-01
  1.6397042e+00
  9.0215403e-01
 -1.3978502e+00
 -1.6137648e+00
  3.5779130e+00
 -1.0241222e+00
  4.4759828e-01
 -1.8351545e+00
 -5.7605855e-02
 -1.2897359e+00
  2.5777417e-01
 -9.4916523e-02
 -2.2007415e+00
 -3.2643864e-01
  7.7646101e-01
 -1.7674984e-01
 -1.9852910e+00
  1.8593372e-01
 -4.2206937e-01
 -1.9714640e-02
  1.0635646e-01
 -9.6742755e-01
  1.2044246e-02
 -3.3277702e-02
  2.9784958e+00
  2.1245585e-01
  9.3563814e-03
  5.6473309e-01
  4.7479220e-02
 -1.0906475e-02
 -3.5580897e-03
  1.3252305e-02
 -5.1489040e-02
  1.1324612e+00
  1.3475344e-01
  2.9382424e-03
  3.6298949e-02
  2.3949796e-02
 -8.9536821e-03
  1.0346838e-02
  5.2742466e-02
 -2.3827991e-02
  4.8155006e-04
 -6.3100777e-04
 -2.8681669e-03
 -3.7480172e-02
  3.8933766e-04
  1.2838548e-03
 -4.8013064e-01
 -1.7151684e-03
  8.1168093e-02
 -5.4176632e-02
  1.6280631e-02
  1.3164804e-02
 -1.5630437e-02
 -3.9898794e-02
  1.0892136e-02
 -3.2574537e-03
  7.5594243e-03
 -4.7129929e-02
  8.4106056e-03
  1.7032480e-02
 -1.6206538e-03
 -2.2439986e-02
  1.7736839e-03
 -2.6237097e-02
  5.4059280e-03
 -4.8385244e-03
  1.4350865e-02
  3.0662538e-04
  5.5633900e-03
  5.7676952e-02
  1.1134422e-02
 -8.9651249e-02
 -1.4451382e-02
 -4.7910407e-02
 -5.9577573e-02
 -1.2463872e-02
 -5.6922726e-02
  3.5947405e-02
 -5.4729194e-04
 -2.6763340e-02
  1.5698802e-02
 -9.3292091e-03
  1.4552199e-02
  1.5584980e-02
  2.1266907e-03
  2.4783064e-02
  1.3243821e-02
 -6.8248031e-03
  8.1760976e-03
  1.5932478e-02
 -7.2645210e-03
  1.8513834e-02
 -3.0185213e-02
 -6.9494639e-03
  3.6140021e-02
 -4.2289770e-03
  1.6869396e-02
 -2.8230028e-02
  2.3516382e-03
 -1.4852383e-02
 -5.2838780e-02
  5.7317276e-02
  8.7894732e-03
 -5.6804670e-03
  3.8486592e-02
  4.8083616e-03
  3.3768270e-02
 -1.6260147e-02
  4.6863468e-04
  1.1809901e-02
  1.6960537e-02
 -3.1521600e-02
  8.3778575e-03
 -7.3443882e-02
 -2.7569446e-03
  7.4539790e-03
  2.0253142e-02
 -1.9494584e-02
  2.5740236e-01
 -3.1785294e-02
 -2.5482231e-03
  7.7886218e-03
  2.0583803e-03
  5.0839460e-03
 -2.1537587e-02
  2.6488718e-02
 -4.4534974e-02
  1.8612586e-02
 -1.0959366e-02
 -7.3592504e-03
  8.2924105e-03
 -1.0919033e-03
  1.2886793e-02
  3.5268549e-02
 -1.7753037e-02
  1.1078738e-02
  4.4315431e-02
 -1.5050328e-02
 -3.0247595e-03
  9.6005099e-03
 -8.0964388e-03
  2.6429820e-04
  1.6561367e-02
 -1.2962013e-02
  1.5845863e-02
  1.4546203e-02
  3.3991773e-02
  6.8360623e-03
  1.1670124e-02
  2.3886233e-03
 -1.1273242e-03
 -1.9616275e-03
 -1.4460373e-02
 -2.2621503e-02
  8.9168344e-03
 -4.4676267e-02
  5.5830628e-02
 -1.0813816e-02
  3.5238788e-02
  2.3622638e-02
  1.8976629e-02
 -8.7853959e-03
  5.0901570e-03
 -3.8883910e-02
 -2.0988582e-01
 -2.3928134e-02
 -1.8492196e-02
 -6.5206918e-03
  8.6795827e-03
 -3.7811026e-02
 -2.6173494e-04
 -9.2914023e-02
  9.2883223e-01
 -1.2966206e-02
 -1.4123128e-01
 -3.1383265e-02
 -3.8209422e-03
 -2.2632012e-03
 -1.5807491e-02
  5.7632462e-03
  5.1090675e-03
 -1.0588489e-02
  7.5718523e-03
  1.0995034e-03
 -5.6647558e-02
 -1.6632719e-01
 -8.2995069e-01
  6.6182363e-01
 -1.5996937e+00
  1.3371161e+00
 -7.4509181e-02
 -5.2507651e-01
  2.1561915e-01
  3.5999030e-02
  4.6457380e-01
  8.7669271e-01
 -1.1553498e-01
  3.4213737e-02
 -1.7571004e-01
 -2.9662419e-03
 -4.3649901e-02
 -1.7278453e-02
  4.1197460e-02
 -3.9714700e-01
  3.1306767e-01
 -6.6638686e-02
  1.0948880e+00
  1.5826979e-01
 -4.7308442e-01
 -1.4273880e-01
  4.4448945e-01
  6.2957382e-01
 -6.5558888e-02
  4.6517784e-03
 -5.1257364e-02
 -2.4306983e-02
  7.5803059e-03
 -1.8147414e+00
  4.7626950e-02
 -2.8230786e-01
  6.6924906e-01
  5.3640395e-01
 -5.6524569e-01
  3.3939524e+00
  2.8277151e-03
  1.5071613e+00
 -4.0810758e-01
  2.2987754e+00
 -1.0477668e+00
  3.1071022e-01
 -2.5850081e-01
 -1.1755513e-01
  1.5155133e+00
  7.6691598e-01
  1.6541268e+00
  2.1774833e-01
  2.7312303e-01
  4.9835961e-02
 -1.3672024e+00
  9.5331693e-01
 -9.6888334e-01
 -4.7330242e-02
 -3.5175639e-01
 -3.8159683e-01
 -4.7264304e-02
  1.4418633e+00
 -2.7374372e-01
 -9.3760073e-02
  1.0199761e-01
 -2.1968210e-01
  8.9331279e-03
  1.4433226e-01
 -4.0807575e-01
  1.7380990e-02
 -2.8037605e-01
  1.4815942e-02
 -3.4227723e-01
 -5.3132218e-01
 -5.4062210e-02
  2.5826004e-01
 -8.8975191e-02
 -2.0479108e-03
  7.7577430e-01
 -1.0324510e+00
 -1.7055579e-02
 -1.2754673e-02
 -1.1301017e-03
  4.9392868e-02
  9.1797113e-02
 -3.7394893e-01
 -5.8529424e-03
 -1.4298469e-01
  1.0467034e-02
 -3.9552733e-01
 -5.5108823e-02
  5.4980695e-01
  3.8714919e-02
  8.4249303e-03
  5.7791557e-02
 -1.4605538e-03
  3.0376557e-01
  1.0294574e-01
 -1.0331819e+00
  4.9789127e-02
  4.8011521e-01
  6.4745039e-02
 -4.1507548e-01
 -2.9645693e-01
 -1.0274458e-01
 -7.3650423e-03
  5.0311834e-01
  7.9786825e-01
  1.6874588e+00
 -6.6180448e-03
  1.2558003e-02
 -3.6737043e-01
  1.6189038e+00
  1.0869836e-02
 -1.5530936e-01
 -4.3686199e-01
  9.3515471e-02
  2.6637629e-01
  3.3160421e-01
 -3.7835769e-02
 -5.1284248e-01
 -1.7957561e-01
  1.0681926e+00
  5.9388101e-01
  5.3714016e-03
 -8.0106758e-02
 -6.1018187e-01
 -2.5189603e-02
  5.2727271e-02
  1.5311285e-02
  2.9773125e-02
 -3.5183359e-02
  2.9135251e-02
 -1.5059642e+00
  1.1819158e-03
 -3.7132809e-01
  1.8047868e-01
 -1.5468754e-04
  9.1438726e-02
 -1.4114974e-02
  5.5840707e-01
 -1.9384049e-02
 -1.9012924e-02
 -2.2684677e-02
 -3.0183161e-03
 -8.6409040e-03
  1.3187918e-02
 -4.2643566e-02
  7.2260625e-03
 -9.0272566e-03
  9.4304240e-01
  1.6048671e-01
 -1.2134096e-01
 -1.2849599e-01
  2.2295675e-01
 -7.1969330e-02
 -1.2431838e-01
 -7.9694875e-02
  3.0137189e-03
 -2.0008464e-03
 -1.6228309e-02
 -1.9075996e+00
  4.2695418e-02
  2.5145769e+00
 -1.3989764e-01
  7.4515855e-03
  1.4409264e+00
  3.7069468e+00
  6.5304089e-01
  4.8500169e-03
  1.1200324e+00
 -2.9014094e+00
  3.4282908e-01
 -6.9603836e-03
  3.7462629e-02
 -1.6927716e+00
 -2.9416654e-01
 -4.7618514e-01
 -5.4758325e-02
 -4.1933247e-01
  6.9410883e-02
  1.1504846e+00
 -2.5643704e+00
  6.0256787e-02
  3.4771040e-01
  1.9308718e+00
  1.0095419e+00
  1.3886755e+00
 -2.1679662e-02
 -5.4809991e-02
  1.3090653e+00
  1.6436349e-01
  1.9786475e-02
  2.6530234e-02
  1.5913309e-01
  1.7977318e-03
 -1.1531696e-02
 -2.3664262e-02
 -4.0138833e-02
 -5.5385336e-02
  4.4668753e-02
  7.8491401e-03
 -3.3194207e-02
  2.5111281e-03
 -9.7698681e-03
 -5.7912520e-03
 -2.7964670e-02
  1.3404570e-02
  1.3609953e-01
  5.2273616e-02
  6.6453055e-02
  2.5434587e-02
 -2.5058677e-03
  6.1330255e-02
 -1.4064272e-01
  1.0603188e-04
  3.8958181e-02
  2.1076588e-02
 -1.4014265e-02
  7.3468825e-03
 -5.2500400e-03
  1.7792195e-02
 -1.0266807e-02
  4.1463513e-02
 -1.8327801e-02
 -2.0039904e+00
 -1.0507599e+00
 -1.8050762e+00
 -8.1345493e-01
  3.7805980e-01
 -3.0712554e+00
  8.9158696e-01
  3.1086144e-01
 -9.9870570e-02
 -1.1025849e-01
  2.6742461e-01
 -4.8518363e-01
 -3.1733775e-01
 -2.2788502e-03
 -1.1754520e+00
 -2.8104931e-03
 -5.4115104e-04
 -1.0772024e+00
 -1.0005251e+00
 -1.2423186e+00
  1.6105664e-01
  5.1160216e-01
 -3.3729139e-01
 -5.3773570e-01
  2.1207149e-01
  3.3688679e-01
 -1.2239905e-01
  1.3061547e+00
 -9.0024590e-02
 -3.2429229e-02
 -7.6209104e-01
  7.7941291e-02
 -6.6681540e-01
 -1.1667163e+00
 -2.0554345e+00
  5.9388602e-01
 -4.4138017e-03
  1.4564259e-02
 -8.6118648e-04
  3.0122135e-02
  2.6348865e-02
  2.0587947e-02
  1.3453422e+00
  3.8062301e-01
  2.6200142e-02
  1.2338399e+00
  1.4950269e-01
 -1.2411182e+00
 -1.4538430e+00
 -4.7794676e-01
  2.4622219e-02
  1.3623706e+00
 -6.6534434e-05
 -8.3065685e-03
 -1.6706544e-03
  1.1829786e-02
 -7.1221185e-01
  1.0877401e+00
 -2.1205207e-03
  5.4645824e-01
 -9.7127175e-01
  7.6918205e-04
 -7.7024907e-02
 -5.3970639e-02
 -1.5259525e+00
  3.1695471e-03
  9.2334872e-01
 -3.7570816e-02
  3.5727069e-02
 -3.0721316e-01
 -3.3739705e-02
 -1.1533967e+00
 -2.8174449e-02
  6.0044222e-02
  1.8183098e+00
  9.6485609e-01
  5.6932008e-01
  1.3247088e-01
  1.3713582e+00
 -2.9994149e-03
 -7.8333569e-01
 -3.9513960e-02
  5.0878471e-01
 -3.9246853e-04
 -5.6997392e-02
 -1.2304692e+00
  7.8268759e-03
  5.6390589e-01
 -1.7883379e-02
 -1.4070014e+00
  1.9065736e-02
  8.1616515e-01
  2.8569682e-02
 -7.5809091e-01
  1.2199773e+00
  4.2823087e-03
 -3.4964342e+00
  2.4878101e-02
 -2.1527822e+00
  2.5000066e-02
 -3.9588403e-02
 -3.8836911e-02
 -1.0723481e-03
  1.1169215e-02
 -1.7349487e-02
  5.2887972e-02
 -6.7061923e-02
  8.1068100e-03
 -2.0124473e-02
  1.2333157e+00
 -1.5191075e+00
 -6.4901036e-01
  1.5059071e-02
 -7.5466251e-01
  1.2246860e-02
  8.9704897e-03
 -9.0468502e-01
 -2.0151193e+00
  4.1317561e-01
 -3.7032279e-01
  2.9486071e-03
  5.6670932e-03
 -2.7019344e-02
 -1.5731086e-01
  4.4849071e-01
  1.8547276e+00
  6.0054231e-01
  2.0215366e+00
 -1.1123049e+00
 -3.3921590e-01
  4.1507307e-02
 -1.9419010e+00
 -8.0451626e-01
 -4.0396240e-01
  1.3508575e-01
 -4.3985724e-01
 -7.7913664e-03
 -3.1715617e-02
  1.0226928e-02
  8.5840225e-02
  1.2447524e-01
 -1.9443953e-01
  5.1716602e-01
  3.1920869e-02
 -7.5285822e-02
 -1.7781082e-01
 -2.7308506e-01
 -6.4029372e-03
 -5.4368293e-01
 -2.2947512e+00
  1.8661542e-01
  2.6996800e-01
 -1.7576078e-02
  7.2022721e-02
 -6.5841316e-03
 -1.4776574e-01
 -2.2245372e-02
 -4.5590442e-01
  3.8517844e-03
  1.3186474e-01
  9.4530165e-01
 -5.5381870e-03
  1.6674021e-01
  5.2735075e-02
  1.3984618e-01
 -7.2556779e-02
  6.3959205e-01
  6.0979567e-02
  4.9712530e-01
 -2.8580859e-01
 -2.8725934e-01
 -1.9438672e-01
  8.9616552e-03
 -4.7780160e-02
  2.2988265e+00
 -6.6406333e-01
  3.8990113e-01
  3.3128086e-02
 -7.2707677e-01
  1.5406612e-01
 -3.2464045e-01
 -1.5665933e-02
 -7.0199132e-01
  4.7870590e-03
  1.0769384e-01
  5.2195084e-01
 -3.9305240e-02
  4.5343080e-01
  1.8626451e-02
  3.6256567e-02
 -1.0512446e-01
 -6.4508599e-01
 -1.6460589e-01
  3.8800257e-01
 -1.4364462e+00
  2.5432358e-02
  1.6704880e-01
 -1.4977706e-02
 -8.2486743e-01
  4.5058806e-03
  6.1701320e-02
 -7.0862971e-02
 -2.6324406e+00
  1.2304869e-01
 -2.0793523e-01
  1.6011400e-02
 -1.4853053e-02
 -3.4115087e-02
  5.4051973e-02
 -6.6618550e-01
  5.3244227e-01
 -3.0639315e-01
 -7.8841351e-02
 -2.2303282e-01
 -1.5664477e-02
  1.5309000e-01
  5.3648770e-01
  1.8983513e+00
  6.8695593e-01
  1.0790681e-01
  1.1657792e-01
 -9.5905639e-02
  4.6718057e-02
 -1.1279237e-01
 -3.2038361e-01
  1.0513730e+00
  8.2024127e-01
  1.3821450e+00
 -3.1571814e-01
  2.6328298e-01
  1.9344979e-03
 -1.0175310e+00
  4.8119649e-01
 -5.8526820e-01
  1.5147217e-01
 -1.2368388e-01
 -1.7871220e-01
  3.8037899e-01
  1.3522624e-02
 -1.5126202e-01
  1.1990705e+00
 -2.0407200e-01
 -1.7883880e+00
  1.6438172e+00
  7.0989501e-01
  1.1755704e+00
  1.0058873e-01
  3.1400335e-01
  2.1521749e-03
 -8.3916791e-02
  2.8173435e-02
  2.6382657e-04
 -1.2262056e-02
  2.0414956e-02
  4.0393624e-02
 -1.8633586e-01
 -1.8234149e-02
  8.3318176e-03
 -1.6083363e+00
  1.6023596e-01
 -3.3952504e-02
  6.4393148e-02
 -1.6261365e-02
  4.3666154e-01
  2.6447631e-02
 -6.9429711e-03
 -3.3659097e-03
 -2.2432571e-03
 -5.4120733e-03
  3.0817528e-04
  1.1787937e-02
  4.8695910e-01
 -6.4954963e-03
  1.5196719e-02
  1.4342425e-02
 -5.0734270e-01
 -4.7797612e-03
  2.3780523e-02
  5.3527027e-02
 -4.7379597e-03
 -1.9463910e-02
  5.9061041e-03
 -8.0750054e-03
 -9.8136470e-02
  4.8340864e-02
 -1.8878158e-02
  1.9199399e-02
  1.0084329e+00
  1.8110526e+00
  1.0898922e-01
 -2.9213903e+00
 -1.3581659e+00
 -1.4624618e-01
  4.1213462e-01
 -5.9831711e-03
  5.9492278e-01
 -2.4349071e-02
 -3.1677455e-01
  9.7730070e-02
  5.6396955e-01
  1.0500416e-02
  3.7858573e-01
  5.0598338e-02
 -1.3705420e+00
  3.9291978e-03
 -1.4446145e+00
 -2.5154397e+00
 -1.9233649e+00
 -3.7478560e-01
  4.5435578e-01
  2.1087539e-03
  7.9895127e-01
  1.0686661e-02
 -2.1202749e-01
  8.2925910e-01
 -5.2384160e-02
 -1.1423594e-01
  8.0664434e-02
  1.3372448e-01
 -2.7722194e+00
  4.4623363e-01
 -2.9939087e-03
 -2.3814937e-02
  9.1732341e-01
 -1.6700275e-03
  1.7543644e-01
  1.9506779e-02
  5.8651261e-02
  9.3777113e-02
  6.2910989e-03
  3.5091139e-02
 -1.4174372e-01
 -4.0761518e-01
  6.0527483e-03
  1.5227900e-02
 -2.6345348e+00
 -8.6208712e-03
 -1.3314857e-03
 -8.8485026e-01
  2.8783494e-01
 -4.6796146e-01
  3.5913378e-01
  2.0151960e-03
  7.7939993e-03
 -4.9133669e-03
 -1.8683724e-02
 -6.9045447e-02
 -9.4706323e-03
 -1.4090569e-02
 -1.9984139e-02
 -1.0950319e-02
 -1.2161167e-03
  2.2675206e-01
  3.6184525e-01
 -1.9959254e+00
  1.5260733e+00
 -2.4307106e-01
  3.4560898e-01
  4.0038083e-02
  1.2079210e+00
 -6.5419815e-02
 -1.2312053e-02
 -6.0807909e-03
 -5.9848525e-02
  9.6048824e-02
  2.4892619e-02
  2.0927793e-01
  9.5922224e-02
 -1.6984639e-01
 -1.1914984e-01
 -6.2322497e-01
  1.2002502e-01
 -1.0217776e+00
  3.7367812e-01
  9.4408775e-03
  3.5702455e-01
  1.7459610e-01
 -4.4948459e-03
  1.1731746e+00
  8.3611482e-01
 -1.1335456e-02
  2.2621399e-01
  3.6052850e-01
 -2.3033185e+00
  7.5389326e-02
  1.1511580e-01
 -1.8478513e+00
  3.3805618e-01
 -1.3749785e+00
  6.9515160e-03
  3.3255810e-01
  1.1884306e-01
  2.8674665e-03
 -9.8213959e-01
  8.4057592e-02
 -1.1372238e+00
 -2.2955897e-01
  5.0165689e-01
  7.0209667e-02
 -4.1176912e-01
  1.6880772e-01
  1.7680137e-01
 -1.9891945e+00
  3.8862860e-01
 -1.1360055e+00
  7.8663105e-01
  2.0183381e-02
  2.4938285e-02
 -6.6011943e-02
 -3.7066704e-03
  3.7230164e-02
 -2.4369929e-03
  9.5995963e-03
 -1.1558405e+00
 -4.3215025e-03
  7.5289172e-01
 -1.2159227e-02
 -7.6414239e-01
 -4.7610790e-01
  2.2566035e-01
  4.6241626e-01
  9.4553447e-01
 -5.4904249e-02
  5.6769121e-01
  2.5284117e-01
 -4.4300179e-03
  3.1554720e-01
 -1.4929310e+00
 -4.9919933e-02
  6.6538192e-02
  8.6977267e-01
 -3.5054520e-01
  4.6120283e-01
  3.7973099e+00
 -7.2906774e-01
 -4.3091178e-01
 -2.5446299e-01
  1.4320984e-02
  1.3392182e-01
  1.4753107e+00
  2.1913296e-01
  3.2735422e-01
 -6.3697368e-02
  6.1598492e-01
  7.0091361e-01
 -4.5050558e-02
  6.6764081e-01
  2.6836461e-01
  4.0822953e-02
 -1.5476432e-01
  2.5355704e+00
  1.3956468e+00
 -2.4692683e+00
  8.3620137e-01
 -2.5609902e-01
  2.7837746e-02
  4.4293499e-01
 -6.6284658e-03
 -2.8487153e-03
 -1.7066221e-01
 -1.4098651e-03
 -2.8657863e-02
  5.7185590e-03
 -8.7101120e-01
 -2.4487099e-02
  8.9708053e-02
  1.7824984e-01
 -2.2729449e+00
  6.8372071e-02
  1.9031415e-02
  1.1370848e-03
 -3.4071516e-02
  7.0630121e-03
  1.4360541e-02
 -1.4920691e-01
  3.2651737e-01
 -1.4616278e-02
  8.9747645e-03
  9.3145631e-03
  8.4971994e-02
 -3.1815537e-03
  9.2438990e-03
 -7.3587867e-03
  8.2759351e-01
  3.8973898e-02
  1.0971108e-02
 -2.1125285e-03
 -1.7573357e-02
 -1.4166083e-02
 -5.7254237e-04
  8.3709188e-02
 -1.0859422e-01
 -3.2751489e-02
  5.2931812e-02
  8.0777943e-02
 -1.3128103e+00
 -4.3055573e-01
  6.5396321e-01
  1.8473877e-01
  3.7589967e+00
 -1.2593036e-02
  9.9482596e-02
 -3.1921977e-01
  2.0022833e-01
 -9.9510769e-04
  3.3012912e-02
 -6.4593768e-01
 -3.9862655e-02
  9.0518408e-02
 -4.4512111e-01
  5.0137583e-02
  1.3063320e+00
 -3.8786224e-01
  3.4197986e-01
  6.1627686e-01
 -1.7968524e-01
 -4.0495005e-02
  7.2158678e-03
 -1.9074407e-01
 -8.2165295e-01
 -1.1553795e-02
  1.6464844e+00
 -4.1838687e-02
  1.0909273e-01
 -3.4875554e-01
 -2.2916858e-01
  3.2213651e-02
  1.0229294e-01
  3.5447618e-01
 -2.3429317e-03
  2.1979021e-01
 -1.6343319e-01
  1.3437551e-01
  4.1900650e-01
  4.3132342e-02
  1.9321587e-03
 -3.1647105e-02
  2.3268830e-02
 -1.7189950e-01
 -6.2949234e-01
 -3.4581978e-02
  8.8649845e-01
  4.6860650e-01
 -1.4144798e-01
  3.5049986e-02
  4.4678512e-01
 -7.3369181e-01
 -6.8145947e+00
 -1.4528975e-02
  6.8535858e-01
  4.4071702e-03
  6.4508185e-02
  3.9331712e-02
  5.8133039e-03
 -2.9125588e+00
 -2.6945323e-01
  2.4999009e-01
 -2.8787681e-03
  3.4431356e-01
 -3.3385074e-01
  2.9032802e-02
  4.0628812e-01
  5.2687568e-03
 -4.0787935e-01
 -1.7479357e-01
  1.6954644e-03
 -4.8536524e-01
  5.4013717e-01
 -6.1167213e-03
  2.5489196e-01
 -1.5551456e-02
  1.1360602e+00
 -9.8088838e-02
  1.4799661e-02
 -2.4898112e-02
  3.5130154e-02
  6.4992619e-01
  1.7694080e-01
  1.4988725e+00
  2.4977553e+00
 -4.2831281e-01
  5.4727919e-02
 -2.4241899e-01
 -4.6633151e-03
  2.1573124e-02
  6.7025125e-01
  8.4109575e-01
  5.3199232e-02
 -4.7515091e-01
  2.4143768e-02
 -2.4092202e-04
 -9.1243643e-01
  3.4401976e-02
  3.2549298e-01
  2.8479835e-01
  6.4919412e-01
 -4.6201548e-01
  1.7173426e-01
  6.1503123e-02
  2.4194568e-02
  2.2203140e-02
  2.1115378e-01
 -2.0232221e-01
 -9.2187464e-02
  3.7737554e-01
 -3.4589864e-02
  1.4803022e-01
  5.1157237e-03
  2.6660135e-01
  1.2491137e+00
 -7.0016384e-01
  1.1170107e+00
  7.7506825e-02
  1.3661771e-01
 -2.7270103e-01
  1.1599033e+00
 -1.2563841e-03
 -2.2203176e-01
 -1.2049316e+00
  1.5639125e-01
 -9.7254467e-01
 -3.9758060e-02
  5.9571904e-01
  8.8319033e-02
 -6.3726795e-01
  1.5185950e-02
  1.8824219e+00
 -1.1376057e-01
  2.8806508e-02
  1.9316087e-03
 -9.6607462e-02
  2.6437098e-01
  1.7090330e-02
  1.2474885e+00
 -1.1593815e+00
 -1.0685180e+00
 -2.8239870e-01
  3.4605961e-02
 -1.6398677e-01
 -1.7686110e+00
  5.1849103e-01
  7.7771235e-01
 -2.9784063e-01
  1.2059513e+00
  9.3747300e-01
 -6.4377940e-01
 -1.1369807e+00
  7.0847011e-01
  1.1459338e-02
  4.4256728e-02
 -1.1459021e-03
  1.9762331e-01
  1.2406724e-01
 -3.4361157e-01
  5.3177541e-03
  1.2262287e-01
  1.5994349e-02
  2.6274320e-01
  1.9229783e+00
  2.9375353e-01
 -5.6474876e-01
  2.7990261e-02
 -1.3746628e-01
 -3.1342882e-01
 -1.6430264e-02
  4.3605993e-04
  1.6770806e-02
  8.0493607e-02
 -5.0191708e-02
 -2.2300012e-02
 -1.3444576e-03
  2.7178808e-03
  4.5885867e-03
  1.4704864e-01
  4.4035900e-01
  5.9173280e-01
 -1.0633549e-01
  1.7253214e-02
 -2.2380229e-02
 -4.6980789e-01
  1.5785748e-03
  1.9472260e-02
  2.5587821e-02
  4.6448454e-02
 -3.0047789e-01
  1.7939007e-04
  7.3509775e-03
 -1.0269850e-02
  1.4199214e-02
 -4.7512654e-02
  2.5395148e-02
  2.0113349e-01
  1.8503936e-01
 -1.1560636e-02
  5.1358510e-03
 -2.5036046e-01
 -2.5200204e-03
  3.3428945e-02
 -9.1330539e-03
  4.4794238e-01
  1.1230528e-01
 -2.1013536e-02
 -2.2481654e-02
  2.4434385e+00
  2.3024084e-02
  9.3457550e-02
  1.7563393e+00
  3.5635573e-01
 -1.0733861e+00
  9.4325468e-03
 -3.0927539e-01
 -6.6707837e-03
 -2.5965184e-02
  7.8530431e-02
  1.2386625e-02
  5.9806764e-02
 -1.2566016e-02
 -3.7770939e-01
 -8.2473293e-02
 -4.3934975e-03
 -2.1592932e-02
  1.2861216e+00
  2.7922454e-01
 -4.6101220e-02
 -7.2661549e-01
  9.1985598e-02
 -1.0304999e-02
 -1.1194558e-01
  1.7116733e-02
  2.8682008e-04
  8.2321927e-02
  2.2760007e-01
  3.4846875e-01
  1.6486272e-02
 -4.4087186e-02
 -2.6947743e-01
 -2.1487229e-02
  4.9729563e-02
  1.3198978e-01
 -3.8140541e-01
  1.8375822e+00
 -2.9746264e-02
 -9.0618283e-03
 -3.7711990e-01
 -8.8199638e-03
 -1.4822559e-02
 -4.9215041e-02
  1.0892890e-01
  1.8467280e-01
 -7.3193661e-03
  7.4612089e-02
  8.5101143e-02
 -3.6694821e-02
 -4.5074534e-01
  2.0005708e+00
  2.7062616e+00
 -3.3353608e-02
 -1.6074307e-02
  7.1154202e-05
 -1.5812666e-03
 -3.3865545e-02
 -2.3356432e-02
 -1.9275410e-03
  9.4401566e-03
 -2.4747532e-02
 -2.0151265e-01
 -3.4036908e-02
  2.2401490e+00
  7.1730435e-02
  3.2561570e-02
  1.3520604e+00
  1.6701059e-01
 -4.7690789e-03
  1.7330222e-02
 -4.1574154e-02
 -2.9746557e-03
 -3.1852730e-02
  2.2288067e-02
  8.7477349e-02
  1.0439892e-01
 -5.4087727e-03
 -2.0799212e-02
 -7.8215197e-02
 -1.3192908e-01
 -4.3155369e-01
  2.1755126e+00
  2.7468868e-03
  6.3746578e-01
  1.4704132e-01
 -3.9897844e-02
  6.8789851e-03
 -1.0829070e-01
 -1.7908793e-02
  1.5225486e-01
  4.5112133e-01
  2.2707133e+00
  7.9426140e-02
 -1.1241809e-02
 -2.1506874e-02
 -1.5572257e-01
 -4.6275828e-02
  4.5822555e-01
  8.9494944e-02
 -2.2583261e-01
 -2.1532971e-02
  9.5563885e-03
 -1.0217457e-02
 -4.2817675e-02
  1.6999170e-02
 -5.1146648e-03
 -1.5239473e-03
  9.3334885e-03
  8.9337174e-03
 -1.3452184e-02
  2.3713574e-02
  2.9489955e-01
  4.9826214e-03
 -1.5827036e+00
  2.5860543e+00
 -9.8446637e-01
 -1.2141328e-01
 -3.6676317e-02
 -1.0692834e-01
  1.4057392e+00
 -3.3043674e-01
  9.7964630e-03
 -6.5450408e-02
 -5.1607698e-01
  7.8134902e-02
  1.9938999e-03
 -6.6595487e-03
 -1.0137253e+00
  1.7056857e-01
  4.3911198e-01
  3.6813390e-01
  4.2624116e-02
  8.2047528e-01
  2.0253966e-03
 -2.0465222e-01
 -6.6516823e-03
  3.8793199e-02
 -4.3309245e-02
 -8.1130552e-01
  1.1059412e+00
  1.2973158e-01
 -4.7258511e-01
 -5.0755739e-01
  3.3907905e-01
 -2.2854750e-01
  1.0041285e+00
  4.0656689e-01
  3.3546883e-01
  1.1953956e+00
  4.4341709e-02
  1.1726701e-02
 -5.7419918e-02
  7.3944628e-02
  1.4008980e+00
 -4.7483262e-01
 -7.6445654e-02
  1.3622617e+00
  3.2268748e-02
  1.4569668e-01
 -2.3909426e+00
  2.0325069e-01
 -4.2577274e-02
 -1.1700416e+00
 -9.9204963e-01
 -1.3258633e-01
  5.7772201e-01
 -3.4886058e-02
 -2.3095999e-03
 -1.5739784e-02
  4.0709198e-01
  2.0337087e-01
  7.4118721e-01
 -3.1267509e-02
 -6.7480011e-03
  9.6227415e-03
 -1.6744034e-01
 -1.8781226e-02
  4.1936454e-03
  1.5267861e-03
  2.1942715e-01
  2.6853478e+00
  1.1208364e-01
 -3.7592992e-02
 -5.0187454e-02
  2.7578685e-03
  1.2343694e-02
 -4.5365825e-02
  1.2183554e-01
  1.4817956e-01
  6.6853687e-04
  1.0250406e-01
  1.8979605e-01
 -1.6673058e-02
  1.0872904e-02
 -9.4771795e-02
  4.9884129e-02
  7.3850499e-03
  2.7417103e-02
  4.2831905e-02
 -3.2373391e-02
 -5.0218847e-02
  1.5344614e-01
  1.4900339e-01
 -1.3823706e+00
  2.3421584e-01
  1.6552921e-01
  1.3847442e-02
  2.8168359e+00
  2.8102395e-01
  1.1299100e+00
 -4.3103778e-01
  2.5908399e+00
 -7.9124290e-01
  3.5852572e-01
 -3.5700612e-02
  2.1147311e-01
 -3.1893430e-04
  9.0719211e-01
 -4.9417207e-01
 -1.0400687e+00
  7.2475746e-02
 -5.3901035e-01
  2.8352630e-01
 -1.6922069e+00
  6.7985710e-03
 -4.3885238e-03
  6.2818512e-02
  2.5916810e+00
 -5.6121522e-03
  3.4070771e-02
 -8.0930777e-02
  2.9617045e-02
 -8.6059393e-03
  5.2406281e-01
 -4.3126445e-02
  1.1061918e+00
  1.4140235e-01
 -9.8572540e-01
  2.3327273e-01
  8.6022979e-01
  3.9937946e-01
 -1.0927399e-01
  2.2444537e-02
  4.1994813e-01
  1.1844590e+00
  5.7546276e-01
  3.1209478e-04
  5.0577610e-03
  2.0378716e-02
  3.0670587e-02
  3.0763042e-01
  3.2032514e-01
  1.0909473e-02
  1.7212778e-01
  2.6818448e-01
 -1.3274808e+00
  6.7037405e-03
 -3.7484052e+00
 -8.7217551e-01
 -1.2945664e+00
 -7.4820536e-01
  4.1681668e-01
 -1.8401699e-02
 -2.2402257e-01
  5.2917410e-02
 -2.1798450e-02
 -4.3497211e-01
  4.3365157e-01
  4.6555731e-01
 -2.1219568e-02
 -7.9941548e-02
 -9.5687664e-01
  5.3561695e-02
  5.2681860e-02
 -1.3033488e+00
 -1.9168178e+00
  1.7938201e+00
 -1.5750284e-01
 -6.6454716e-02
  3.3555117e-03
 -4.5371961e-02
  1.8208852e+00
  1.3674092e-02
  5.9586775e-01
 -4.4887406e-01
 -8.1456542e-02
  5.6584891e-02
  3.4702599e-01
 -1.7785926e-01
  9.7010225e-02
 -2.9615796e-01
 -4.6650499e-01
  3.3139971e-01
  5.2565750e-02
 -8.2574718e-02
  1.7688434e-03
 -3.3998555e-01
  2.9188986e+00
  1.1198617e-01
  4.5120325e+00
 -6.7391373e-02
  1.3648826e-02
  1.0940757e+00
  2.6222911e+00
  1.6822003e-01
 -3.0611491e-01
  1.0731324e-02
  2.6578357e+00
  6.8007326e-01
 -1.8856294e-02
  2.3413224e-02
  1.9085439e-01
 -2.0323873e-02
  9.4298404e-01
 -7.3769110e-01
  1.5020283e-01
 -1.5372756e+00
 -6.4050472e-01
  3.4385271e-02
 -6.2460983e-01
  5.3863589e-02
 -5.2639085e-01
 -9.1563535e-01
 -1.3860532e+00
  5.0414861e-03
 -1.3646443e-02
  1.8479703e-01
 -1.5774157e+00
  4.2774117e-01
  1.2362674e-02
 -5.9986162e-01
  6.6290247e-01
  1.6087747e-01
 -3.7654046e-02
 -5.3783387e-01
  4.3854885e-02
 -1.8675354e-01
 -2.6675932e+00
 -1.7376704e+00
 -3.1351342e+00
  1.3541369e+00
  1.4103259e-02
 -2.2412008e-01
 -6.6905177e-01
  6.1802566e-02
 -4.2999559e-03
 -5.3667343e-01
 -2.0856538e-01
  1.5291625e-02
  4.4711448e-02
  2.7854792e-03
 -7.4861750e-02
 -2.5650752e-01
  1.5465028e-02
  1.4111162e-03
 -2.1645262e+00
  1.1209257e+00
  1.4889689e-01
 -8.3670035e-02
 -6.2084502e-01
 -1.5929699e-01
  1.6004309e-02
 -1.2111642e-02
  1.1335616e+00
  9.6666086e-01
  5.1530659e-01
  7.9426682e-03
  1.8268445e+00
  1.1784359e+00
  5.2461315e-02
 -3.9913915e-02
 -7.5325227e-01
  2.0715903e-01
  1.2600716e+00
 -5.6036511e-03
 -5.8493246e-03
  1.0301507e-03
 -7.6827576e-04
 -8.7337364e-03
  8.4193327e-02
 -2.5643820e-05
  1.2380427e-01
  8.6240005e-03
  8.3477937e-02
  3.9918419e-02
  6.2326994e-02
 -3.7104888e-03
  5.9209549e-01
  1.1897990e-02
 -1.1908204e-03
 -1.4467085e-03
  9.1943583e-03
  3.6595669e-03
 -1.4056822e-02
 -6.1663291e-03
  1.2156988e-02
  2.0867977e-02
  5.2438330e-02
 -1.9295393e-02
  4.8357971e-02
  1.5984580e-02
  2.3938054e-02
  2.4409015e-02
  1.7108692e-01
  2.0078126e-02
  1.6873661e-02
 -1.9561544e-02
 -3.3661686e-03
  3.6531261e-03
  2.6779842e-01
  1.4347365e-02
  5.8472391e-02
  8.6860523e-02
  9.4255589e-02
 -3.7610672e-02
  1.6458051e-01
  1.8414467e-03
 -5.0137872e-03
 -3.0821466e-01
 -6.3313824e-01
 -1.4462511e-03
  1.0403009e-02
 -2.0322353e-02
 -5.4221109e-02
 -1.4176486e-02
 -5.1179361e-02
 -1.7435843e-04
  5.4110652e-01
  2.3198609e-01
  8.8546532e-01
  2.3041786e-01
  1.9070838e-02
  2.8195989e-01
 -8.0539562e-02
  3.1680316e-02
  8.4700090e-01
  3.5499877e-01
  1.2482233e-01
 -8.4858267e-03
 -8.8537680e-03
 -9.3806356e-02
 -7.4365482e-02
  1.3956605e-01
  2.6477742e-01
 -1.6877344e-02
  3.4266719e-01
 -3.8116064e-02
  2.0317316e+00
  5.5199090e-02
  1.3015651e+00
 -4.0338878e-02
 -1.9917810e+00
  1.0492414e-01
 -7.7186674e-02
 -1.3393511e-02
 -6.8223871e-02
 -3.2349020e-02
  1.0565050e-02
  9.3741724e-03
  1.3684025e-01
  2.2920612e-03
  1.3492399e-01
  1.2275010e-02
  3.8597006e-01
 -5.5440138e-03
  1.4652909e-01
 -9.4147623e-01
  1.0527777e-01
 -1.0965358e-01
 -5.1262155e-03
 -5.7996647e-03
 -8.7127164e-03
  3.8884794e-03
 -2.5271485e-03
  2.0733522e-02
  3.1447673e-01
 -1.0542146e-02
 -1.8036701e-02
 -1.1263075e-02
  1.0932692e-01
  4.4567344e-01
 -2.1551166e-01
 -1.9615501e-02
 -2.4031336e+00
 -9.2997187e-01
 -3.7982505e-02
  4.0925931e-02
 -7.8026671e-03
 -1.6068874e-01
  3.8781628e-02
 -2.1190736e-02
  1.4689659e-02
  1.1822992e-01
  1.0030815e-02
 -9.7707789e-03
  4.3170284e-02
  3.0163553e-01
 -1.1885487e-01
  2.8083511e-04
 -5.3232300e-01
  2.5959115e+00
 -4.8718996e-02
 -1.8773500e-02
 -8.8163223e-03
  5.0396440e-03
  6.7744139e-03
  6.4453036e-02
  2.1215368e-02
  2.1896128e-02
  2.2823073e-01
 -1.5373139e-02
 -1.4965738e-01
  1.2559503e-03
  2.6162711e-01
 -6.1379120e-02
  2.6083479e-02
  1.8935235e+00
  7.1842396e-03
  8.1821065e-03
 -4.4215485e-02
  2.5493845e-02
 -8.8077895e-03
  5.0853288e-01
 -1.9138651e-01
  2.7999187e-02
  1.5573460e+00
 -4.0796157e-03
  1.1155858e+00
  1.2880737e-01
  1.4319769e-01
  3.0396096e-02
  1.0897856e+00
  1.9944945e-01
  1.1583058e-01
 -2.9225472e-01
  3.7978359e-02
 -2.8584450e-03
  1.2377889e-01
  3.4313940e-02
  1.8992484e+00
  5.2008554e-03
  1.2831041e+00
  1.0650923e-02
  5.4443145e-01
  4.7697094e-01
 -1.3009816e+00
  1.5883844e-02
  2.0492148e+00
 -6.9484157e-03
  7.0008463e-03
  4.1621283e-04
 -2.6216842e-02
  3.0934077e-03
  5.2019262e-01
 -1.1152090e-02
  1.9519078e+00
 -2.2107130e-02
 -1.8935317e-01
  6.4769000e-01
  2.5735595e+00
  4.0239808e-03
  8.7443575e-02
 -1.3599004e+00
  6.1042660e-01
  2.0423174e-02
 -7.3843561e-03
  1.9358073e-01
 -2.1487299e-02
 -2.9613423e-01
  2.6330799e-01
 -5.3496391e-01
 -4.1787127e-01
  4.4018343e-01
  1.6732177e-02
 -1.3627766e-03
 -1.7920974e+00
  1.4874053e-01
 -1.3728964e+00
  3.5676900e-02
  6.4346485e-02
  2.9203901e-01
 -7.7562649e-03
 -2.5298464e-01
 -1.1593959e+00
 -1.4025623e-01
  1.4006545e-01
 -2.2227055e-01
 -1.4065238e-02
 -1.6190128e-02
 -1.5812689e-02
 -8.4275929e-03
  1.5522225e+00
 -8.0799377e-03
 -1.3036086e-02
  1.1884827e-03
 -4.6645385e-01
  1.4399034e-01
  9.5528178e-03
  2.0976444e-03
 -4.5586128e-02
  3.6476336e-02
  2.6643144e-03
 -6.3852727e-02
 -3.4414566e-04
  1.7625988e-02
 -2.0775279e-02
  3.1767096e-02
 -9.7481096e-03
  2.1396033e-03
  6.0422763e-02
 -7.3502641e-03
 -1.5708925e-02
  5.8059478e-03
 -8.1206085e-03
 -1.9585188e-03
 -2.0764631e-01
 -9.1403536e-02
  1.2295294e-02
  2.6896575e-02
 -6.2500215e-01
 -2.1066980e-01
  2.0922804e-02
  9.8984956e-04
  4.1786563e-02
 -5.4257784e-02
  2.2890471e-01
  2.1157155e-02
  7.7543527e-01
 -1.3961306e-02
  7.5755566e-02
 -1.0873512e-01
 -4.5103289e-02
 -7.1654715e-02
  2.5025648e-01
 -4.7973970e-01
 -1.1218321e+00
 -6.4771645e-02
 -5.0593776e-01
 -1.0060446e-02
  8.5184699e-01
  1.3899703e-02
  3.1035498e-01
  2.6161587e-01
  2.2933490e+00
  5.0867707e-01
 -2.1263997e-03
  2.0003528e-03
 -4.6639448e-01
 -1.0320435e-01
  5.4361904e-01
 -6.2444508e-01
 -5.1150268e-01
  6.9192991e-02
 -5.3051782e-01
  2.0873401e-02
 -8.4171891e-01
 -3.0844081e-03
  1.0216838e-03
  6.1815158e-03
  1.1564797e+00
  1.5130059e-02
 -7.5065219e-03
  6.7367321e-03
 -1.4574488e+00
  7.8006410e-03
 -1.9735210e-02
  9.9087954e-02
 -1.6024014e-02
 -3.0435113e-02
  1.1717381e-01
  7.9090826e-02
 -5.2390799e-02
 -7.7203813e-04
 -2.7520519e-03
 -6.9665842e-02
 -2.4010673e+00
  2.8492784e-02
  2.9238867e-02
  1.0773480e-03
 -6.7472525e-02
  2.3346232e-02
 -7.6370700e-03
 -9.3189585e-01
 -5.3133611e-02
  2.9561281e-02
 -3.3417478e-02
 -4.0211897e-02
 -1.8028494e+00
 -2.2954695e-02
  2.8289953e-01
 -1.8085614e-01
 -2.6442196e+00
 -2.4388928e+00
 -3.5178859e-02
 -4.7144506e-02
 -3.5317749e-01
 -4.6093106e-02
  1.2714468e-02
 -3.4155499e-02
  6.9185519e-03
  1.3601971e-01
 -1.4409082e-02
  5.2062053e-02
 -1.3339778e-02
  1.2330478e-01
  5.4446387e-01
  1.2887797e+00
  1.7404625e+00
 -2.5265655e-01
 -8.5879704e-03
 -4.7485419e-02
 -5.9127484e-02
 -5.5611141e-02
  4.2788908e-03
  1.8898143e-01
 -9.9874213e-02
 -2.6600960e-01
 -2.3296760e-02
  1.2038718e-02
  2.2104439e-01
 -1.8455423e-02
 -5.0213087e-01
  2.9982501e-01
  1.7826931e+00
 -6.4323640e-01
 -2.4869334e-02
 -1.8718658e-02
 -4.0279555e-01
 -5.9791509e-02
  9.8238492e-01
 -2.6338661e-01
 -7.8792786e-03
 -2.0757388e-02
 -3.2743514e-01
 -7.9506859e-03
 -8.4598161e-02
 -3.8222320e-02
 -1.7998215e+00
 -2.6318157e-01
  6.7624927e-01
  3.6131755e-01
 -2.4568474e-02
  1.1712593e-02
  3.2742187e-01
 -2.6098866e-02
 -1.4409436e-02
 -1.0894737e+00
 -1.1789412e+00
 -3.9264023e-01
 -6.7146398e-02
 -1.1765351e+00
 -2.1732254e+00
  1.4364387e-02
  9.0147614e-01
  6.6777360e-01
 -2.9220274e-01
 -1.4389036e-03
  9.7508859e-03
 -1.1471380e-01
 -5.2332717e-01
 -5.2528352e-02
 -5.2771182e-03
 -2.3526233e-01
 -1.5733426e+00
  8.9269159e-03
 -6.6690318e-02
 -1.2203166e-01
 -1.6871126e-01
  7.6491401e-02
  8.0528751e-02
  2.6203507e-01
 -1.4911085e+00
 -7.0352751e-01
  3.1967334e-02
 -1.0745676e-01
 -1.8620632e+00
 -2.4268378e-03
  1.8368062e+00
 -4.7635667e-02
  3.4531376e-01
 -1.5909404e+00
 -4.3347287e-03
  3.2717995e-02
  5.6361318e-01
  4.7733422e-02
 -1.2654271e-02
  4.6801195e-01
 -1.0420651e-03
 -5.1602781e-01
  1.1674808e-02
 -3.1627151e-01
 -2.0149761e-01
 -1.5036979e-01
  2.4999397e-02
  2.5669737e-02
 -3.3704783e-03
 -1.7245311e-02
 -2.7479443e-01
  7.4392505e-02
  3.4407783e-01
  7.8719556e-02
  3.5763234e-03
  5.6732018e-02
 -1.3892261e+00
 -1.3405035e-01
  1.5619814e-02
  1.2970067e-02
 -1.7296763e-02
 -3.5656694e-02
  3.2538872e-02
 -4.8442021e-02
  3.3537133e-04
 -1.0610574e-02
 -8.2385438e-03
 -8.6569451e-03
 -3.6133740e-03
 -3.5394073e-02
 -9.9707851e-03
  1.8634453e-02
  4.2197239e-01
 -4.0230700e-01
 -3.7623353e-02
 -3.0805748e-02
 -2.2530794e-01
  8.1829475e-03
  3.5092068e-01
  2.2628814e-02
 -9.8182100e-01
 -2.0168768e-01
 -3.0614166e-03
  3.9308551e-03
  2.9318986e-02
  9.2457741e-02
 -2.4953870e-02
  3.4856744e-02
 -5.7679254e-01
 -1.3654836e-02
  5.4936600e-04
 -5.2467871e-01
 -1.9649000e-01
 -1.0241307e-02
 -6.0042930e-03
  6.9354121e-03
 -1.0823065e-02
 -1.7731236e-02
 -5.7170510e-01
  1.5618715e-02
  3.1088998e+00
  3.4754872e-02
  7.8812838e-02
  9.2029375e-01
 -1.0518374e+00
 -1.4342707e-01
  1.1421061e-02
 -2.7151737e-02
 -5.9849653e-02
 -3.3172746e-03
  1.5604376e+00
 -2.4741665e-02
  7.3692970e-02
  9.7320732e-03
 -9.6897465e-01
  1.1404444e-01
  3.3410886e-01
 -2.1727583e+00
  3.2980949e-02
  8.6052176e-03
  1.6426809e-02
 -7.4703634e-01
  1.8044756e-04
 -1.3569416e-02
 -7.3132569e-01
 -3.0179453e-01
  1.1995264e-02
  7.9933871e-03
 -3.7115517e-01
 -1.6077019e-01
  3.4169681e-02
  2.9648094e-02
  4.4066659e-01
 -3.0407578e-02
 -4.6245861e-01
 -5.6816274e-03
 -2.9796997e-01
 -6.2266642e-01
  2.8338274e-02
 -3.2117119e-01
 -4.5817593e-01
 -1.0067113e-03
 -2.4726789e-02
 -8.9885765e-01
 -6.2727267e-01
 -2.0926708e-02
  9.2240010e-04
 -3.4975704e-02
  1.0210633e+00
  7.6398170e-01
 -1.7347442e-02
 -3.3176359e-02
 -2.7488549e+00
 -2.2629468e-02
  2.4755637e-01
 -2.3841006e-01
 -2.5490180e-01
 -5.4022986e-02
  1.8834007e-01
  5.8693597e-03
  9.3881629e-02
 -1.3668463e-01
 -4.2655683e-01
  2.3768289e-02
  1.8481007e+00
 -7.8581966e-02
  3.9260405e-01
 -3.5678905e-02
 -8.0235144e-03
 -1.4206543e+00
 -2.1920212e-02
 -4.1992374e-02
 -9.5962954e-01
  2.6140809e-03
  1.0688957e+00
  9.4227470e-02
  1.4119735e+00
 -3.9483956e-01
 -1.6220902e-01
  8.5818672e-01
  6.4045769e-01
  1.7582954e-01
 -2.0872204e-01
  7.0221722e-01
  7.9124868e-01
 -2.7525820e-02
  5.7996437e-02
  1.7981470e-02
 -4.3498918e-01
 -6.9355480e-02
  4.9439755e-01
 -2.3584316e-02
 -4.4599831e-01
 -1.4510540e-02
 -2.3006264e-02
  1.9766578e-02
  3.3151582e-01
  9.6832171e-02
 -1.0795143e+00
 -6.8303621e-03
 -6.6083811e-02
  8.0757624e-01
  7.4551813e-02
 -5.8449930e-01
  6.4711063e-03
 -2.2323135e-01
 -1.2108923e-02
 -4.9855316e-01
 -2.6683128e-01
 -1.1890069e-01
 -1.1328743e-01
 -8.2066572e-01
 -2.2077367e+00
  1.5272014e+00
  7.8958970e-01
 -1.2883266e-02
 -2.1544156e+00
  1.9542484e+00
 -1.8347904e-02
 -2.8370844e-02
  9.1828071e-02
 -1.3395581e-02
  6.1468785e-03
 -9.0269700e-02
 -2.2742368e-02
  4.3172825e-02
 -1.0584148e+00
 -2.4918713e-02
  1.2470485e-01
  5.2633309e-01
 -1.0428520e+00
  2.0006809e-01
 -3.2729882e-01
 -2.4722224e-01
  8.2415760e-01
  3.6294180e-01
 -1.4475188e+00
 -6.7908786e-02
  2.8893337e+00
  1.7956845e-01
 -2.5354514e+00
 -1.4283001e-01
  7.1607471e-02
  3.2827303e-01
 -8.5033625e-01
 -6.9293128e-03
 -1.0844369e+00
  3.0522397e+00
  4.0923327e-01
  2.2472870e+00
  1.1430004e-01
 -2.5488579e-01
  2.6171291e-01
  8.2869325e-03
 -1.8122314e-02
  2.2904758e-01
  9.9865548e-02
  2.5510587e-02
 -4.8638746e-01
 -5.7792505e-03
  5.2689272e-01
 -2.0458915e-03
 -1.6821930e-02
 -6.4305826e-03
  1.6125650e+00
 -1.6171655e-01
  1.9104822e-02
 -5.9961878e-02
  7.2425343e-02
 -2.1454275e-02
  1.2713193e+00
  7.2943995e-04
  1.4631151e-01
 -2.2810787e-01
  6.3254046e-03
  2.2364631e-01
 -2.2845542e-02
 -2.9598726e-02
 -3.4272349e-01
 -1.9027008e-02
  1.1371900e+00
  6.8301195e-01
 -2.3201276e-01
  1.6868751e-01
 -1.0122552e-01
  2.5554001e-01
  2.5789940e+00
 -1.3115144e-01
  7.6279700e-01
  3.4626415e-03
 -1.0574344e+00
  1.0205635e+00
  5.3046118e-02
 -1.4418689e-02
 -1.3507739e+00
  2.6101720e-01
  7.9525375e-01
 -1.4452608e-02
  9.1296844e-02
 -4.3672502e-01
 -3.5470217e-01
  3.1689301e-02
  5.9346210e-02
  1.7577392e+00
 -5.6945330e-01
 -1.4642587e-02
 -2.3908108e-01
  1.0355211e-02
  7.4136674e-01
 -2.7278129e-02
  2.4837959e-03
  5.3952765e-01
 -1.9542406e+00
 -1.0055301e+00
  1.6025457e+00
 -1.3116900e+00
  5.0273842e-01
 -5.2968007e-02
  2.2677653e+00
 -1.3548275e-02
  2.4466738e-01
 -2.0536278e-01
 -8.5038006e-01
  1.9775308e-03
  3.6940256e-01
  1.0624191e-01
 -1.9009046e-01
 -8.6829609e-01
  2.5006461e-01
  7.5187844e-01
 -1.4438476e-01
  2.7137872e-02
  4.9495095e-01
  2.6881409e-01
  1.6634034e-01
  1.9148041e+00
  3.9303675e-01
 -6.0025178e-02
 -7.8466453e-02
  1.0182509e+00
  1.8165696e+00
 -2.0985173e-01
 -2.5435576e-01
  6.9308764e-01
  3.8614597e+00
  9.4982842e-03
 -2.2635387e-01
 -1.5800335e-02
 -5.8725942e-02
  3.1909782e-02
  1.4962325e+00
  7.8617716e-01
 -7.7653073e-02
 -3.7598602e-02
  8.5708313e-04
  2.6137394e-01
  5.2601919e+00
  1.2961089e-02
 -1.3199172e+00
 -2.4142213e+00
  8.0201507e-01
  1.0755827e+00
  4.6438527e-01
 -8.4601897e-01
  5.9507239e-01
  7.9395205e-02
  3.1429253e+00
 -2.4208472e+00
  3.7625158e-01
  5.1786527e-02
 -1.3062135e+00
  3.6712870e-02
  2.5814254e+00
 -1.0152460e-02
 -1.0930649e+00
  4.9653292e-02
 -8.4661186e-01
 -4.9913058e-01
 -1.4254619e-02
 -4.9434412e-02
 -6.8265669e-02
 -1.6103400e-02
  1.4711707e-03
  7.6489449e-01
  7.0485139e-01
 -2.8681517e-01
 -1.7786336e+00
  1.0930770e-01
 -1.2261144e+00
 -1.7941598e-02
 -3.6892584e-01
  1.5274488e-03
  1.2979928e-01
  2.8823590e-01
  3.3378657e-02
  4.3911781e-02
 -1.3062975e+00
  2.7237117e-02
  2.0613892e+00
  1.3637550e+00
  9.5316923e-01
  2.6678983e-03
 -7.9195827e-02
  7.4129581e-01
 -1.0529013e+00
 -1.3043936e-02
 -8.0745715e-01
 -1.9958133e+00
 -4.5952097e-01
 -1.0340688e+00
 -8.3613908e-03
 -2.2158758e-01
  1.0066721e+00
  9.3632795e-02
  7.4433607e-01
  1.2956899e+00
  8.6800724e-01
  6.9736741e-03
  3.8301954e-01
  8.0516285e-01
 -5.5513042e-01
 -2.9873857e-03
 -2.0789754e-01
  8.3269775e-02
 -4.7788998e-01
 -7.8256351e-01
  3.8982186e-01
 -5.8395243e-01
  3.9117780e-02
  2.3007053e-01
  9.8868674e-01
 -6.2775689e-01
 -1.7825121e-01
  1.1164650e-01
  3.5352385e-01
  4.8473170e-01
 -1.7363054e-01
  1.2600146e-01
 -8.2878238e-01
  2.7311563e+00
 -1.3769565e+00
 -1.0890373e+00
  3.2466164e-01
 -1.8611403e-02
 -1.1500748e+00
  1.7579512e-01
 -2.5965035e-01
  6.0668606e-01
 -1.4275844e+00
  2.2988406e-03
  6.7370397e-01
 -1.4426285e+00
  2.8595680e-01
  5.9607911e-01
  3.3340912e+00
  2.9984802e-01
 -1.4015579e+00
  2.4066614e-02
  5.1398622e-03
  1.3666094e-02
  3.9918656e+00
  7.5298655e-03
  2.3842957e-02
  1.6238216e-01
 -4.1676706e-01
  3.2766636e-03
  4.5751047e-01
 -3.9912682e-02
  7.1625253e-03
  1.1259243e-02
  4.5795977e-01
 -3.6999774e-01
 -2.3712955e+00
  2.5914199e+00
 -1.1478335e-02
  2.2059236e-02
 -1.5111289e+00
  3.9466213e-02
 -3.1117663e-01
 -2.5060728e-02
  9.6945298e-01
 -5.9849268e-01
  3.0171571e-02
 -3.2712158e-02
 -1.0785162e+00
  1.4086652e-01
 -8.2075447e-01
 -1.0271089e+00
  2.6878400e+00
 -2.4254749e+00
  2.2204401e-01
  2.1389729e-01
  1.3744794e-01
 -2.3126225e-01
 -1.5397900e-02
  1.0738872e+00
  1.8166859e-01
  9.6983342e-03
  1.0067624e+00
  2.5455338e-01
  6.9404691e-01
  4.1809380e-02
 -6.5368488e-02
 -4.2075510e+00
  4.7918923e-02
 -8.4601843e-01
  3.4930978e-02
 -3.5819266e-02
  2.3137467e+00
  7.9748547e-01
  1.2557566e-02
  2.4266708e+00
 -1.8110670e+00
  6.4588554e-02
  1.3414789e+00
 -5.0327480e-01
 -9.3041837e-01
  3.4863137e-02
  1.2281173e+00
 -4.1197100e+00
  3.0130684e-01
 -5.4064858e-01
  1.0543447e-02
 -4.9544582e-03
  6.4455724e-01
  8.0287451e-01
 -6.1859822e-01
 -7.1483070e-01
  6.0692463e-02
  1.5163354e-02
  4.1538996e-01
 -4.6988580e-01
 -3.5447364e+00
  3.0545920e-01
  1.2713821e+00
  2.5448954e-01
  1.8893011e-01
  1.2393955e+00
  7.6937422e-02
  1.4799958e-01
 -3.5428257e+00
 -3.0720453e-03
  2.6077375e-01
 -3.1602331e-02
  1.3635050e+00
 -8.5767530e-02
  1.2714856e+00
 -5.2144194e-01
  1.1023977e+00
 -3.5987779e-02
 -5.0882471e-01
 -6.8199441e-02
 -8.1058282e-01
 -5.3334314e-01
 -1.1311342e-02
  1.9034656e-02
 -1.1965429e+00
 -1.8505776e-02
 -2.6913261e-01
  1.0422267e+00
 -8.0160767e-01
  1.0009356e-01
  8.4288841e-01
 -1.2598858e+00
 -4.2613599e-01
  2.5808087e-01
  1.1749531e-01
  2.6081988e-01
 -5.9485632e-01
 -5.4151494e-02
  6.8838182e-03
 -1.1348141e-02
 -2.7312493e-01
  1.8857482e-01
 -4.4543683e-03
 -7.4815238e-01
  1.3430947e+00
  1.9238451e-02
  8.9036113e-01
 -5.6303644e+00
  7.6133108e-01
  2.0464645e-01
 -3.2789439e-01
  7.1853232e-01
 -7.5482965e-01
 -1.7145081e+00
  1.6844004e-02
  8.7893512e-03
 -3.3399432e+00
  5.5560333e-01
  5.9330251e-02
 -5.3985602e-01
  1.5327028e+00
 -6.9496897e-03
  1.9932262e+00
 -4.6283278e+00
 -6.5277211e-02
 -1.1031717e-02
 -3.1053671e-01
  1.1814306e+00
 -6.6437930e-01
  9.5925486e-01
  3.4179333e-01
  1.3389684e-01
  5.5028754e-01
  5.6766886e-01
 -8.6632353e-01
  3.4329486e-01
  3.6266547e-01
  1.6801681e-02
  3.6463108e+00
 -5.0939786e-01
 -2.7468011e-01
  4.3862104e-02
  1.0288547e+00
 -2.6142853e-01
  2.5501108e+00
  3.8537437e-01
 -6.4730351e-03
 -1.9075033e-01
  8.9123100e-01
  1.5137959e-01
  2.1697447e-02
  1.8653034e+00
  8.7602293e-01
 -5.8663610e-02
  3.0321661e-01
  1.8572719e+00
 -1.0402466e+00
  1.4499819e-01
 -5.0369523e-02
  1.2995863e+00
  1.1033957e+00
  1.9295833e+00
 -2.0298205e-02
  5.2058052e-02
  1.7226532e+00
  4.0506008e-03
 -2.6521019e-03
 -4.0708226e-01
  3.7068021e-01
  6.2319931e-02
 -6.9257462e-01
 -3.3490771e-01
  3.1063083e-01
  1.1628785e-01
  1.9575524e+00
  1.0324473e+00
 -2.5391385e-01
  2.3235020e-03
  2.8783787e-02
 -4.2656474e-03
  3.5889846e-01
 -2.6875398e-01
 -1.4932750e-01
 -7.6880330e-01
 -1.9803414e+00
  9.6702999e-01
 -2.6174614e-01
  4.0932976e-02
 -2.7095950e+00
  5.5880889e-02
 -1.2603514e+00
  4.8032597e-01
 -2.0141654e+00
 -5.4245180e-01
 -1.3980250e-01
  2.5665319e-02
  2.6300547e-03
  2.2959111e-02
 -2.2980031e-03
 -6.4903301e-01
 -3.8388136e-01
 -1.6808953e-02
 -5.2456907e-03
 -1.9074455e-02
 -9.5492589e-01
 -1.7298691e-02
  5.8070649e-03
  4.6285468e-01
 -2.3804615e+00
  1.2380871e+00
  1.4313199e-02
  2.2106120e-02
  3.3452368e-01
 -2.8243221e-02
  1.6995486e-02
  5.9484202e-01
  1.2848896e+00
 -1.8865460e-01
  1.4301501e-01
  3.0033555e-02
  8.5450888e-01
 -5.3435111e-01
 -2.6617229e-02
  2.9422250e+00
  1.4939646e+00
  3.1631428e-01
 -6.6528529e-02
  1.3988729e-03
 -1.1968765e+00
 -2.4905632e-04
 -2.1487975e+00
 -1.6310335e+00
 -1.6479692e+00
  9.3914650e-02
  1.9649111e+00
 -9.7013795e-01
 -2.0369282e+00
  1.9491079e-01
 -2.4641027e+00
  2.9963040e+00
 -5.0477779e-01
  8.3193332e-01
 -3.8015381e-01
  8.7473109e-02
 -1.4224067e-01
 -2.7617377e-01
 -1.9446999e-02
 -4.8050559e-01
 -1.2791771e+00
 -4.3303972e-01
  1.4728000e+00
 -3.7086714e-02
 -5.8523154e-01
 -3.5841499e-02
 -8.0879050e-01
 -3.4405267e+00
 -1.2168965e-01
 -2.5301456e-01
  3.6777295e-03
 -2.4874603e-02
  6.5767175e-01
 -1.6496110e-03
 -2.9361589e-02
  3.3297081e+00
  5.4908830e-01
 -6.3249302e-01
  5.3016263e-01
  9.2868358e-01
  3.0498114e-01
  5.9284437e-01
  1.5931789e+00
 -2.5606554e+00
  1.1844754e+00
  9.7279161e-01
 -1.6760889e-01
  6.2661069e-03
 -7.2517835e-02
  6.2674448e-02
  5.0303656e-01
 -1.2910907e+00
 -2.2028688e-02
 -1.7857907e-02
 -8.4887868e-01
  4.6096515e-02
  2.3913604e-01
  2.3027033e-01
 -3.0303063e+00
  1.0693351e+00
 -1.5927126e+00
  3.6161622e-01
 -5.8277417e-02
  6.4562738e-01
 -1.4160497e+00
 -6.4183488e-02
  4.8327021e-02
 -6.4550438e+00
 -1.8266081e+00
 -4.3923688e-01
 -3.8606579e+00
 -6.9933861e-02
 -1.1996164e+00
  2.4331920e-02
 -1.2313068e+00
 -1.7589964e+00
 -3.5525601e+00
  3.0586329e-01
  1.3891415e-03
 -5.6299949e-01
 -1.2819142e+00
 -1.5139857e-01
 -2.5524911e-02
 -1.2619627e+00
  2.1119049e-02
 -2.5424215e-01
 -7.8094965e-01
 -2.8296229e-01
  3.8529882e-01
  8.9225888e-02
 -8.1926458e-02
 -1.5581793e+00
 -2.2513033e-01
 -1.9088154e+00
 -5.9570689e-02
 -1.7719135e-02
  7.2132808e-01
  8.8201672e-02
  9.7336769e-02
  3.1007943e-01
 -1.0146274e-01
 -7.5819147e-01
 -2.3133288e-01
  1.8471149e-01
  1.1955746e+00
  3.1153378e-01
  3.1439841e+00
 -1.0440660e+00
  4.6593943e-01
 -7.2981673e-01
  5.7465881e-02
  2.2617844e-03
  1.7259376e-01
 -2.3319991e-02
  3.9578840e-02
  9.6644574e-01
  1.1207265e+00
 -1.1958270e-01
 -2.1362759e-01
  7.6922292e-01
 -1.5056320e-01
  1.1959368e-01
  1.3041414e+00
  7.1959090e-01
 -2.6078124e-02
  2.4426334e-01
 -2.9877797e-03
  1.9120101e-02
 -7.7177691e-01
 -1.5376629e-01
 -1.9773172e-01
 -8.0796230e-01
  1.5128602e+00
 -1.8857814e-01
 -1.7404638e-01
  5.6354171e-01
 -2.8162193e-01
  4.6244867e-02
 -4.3883157e-01
  1.0504383e+00
 -3.5659990e-01
  9.1721100e-01
 -5.6107663e-02
  1.9819710e-01
 -6.9018984e-01
 -6.4212292e-02
  1.4346870e+00
 -2.7633157e-01
  9.6786028e-01
  9.3030661e-02
  2.3490945e-01
  4.9138835e-01
 -6.6519552e-01
  3.2564949e-02
 -1.2264786e+00
  6.6320765e-01
 -1.7176315e-02
 -1.8430749e-01
  1.5411067e-03
 -3.4651525e-02
  8.6821467e-02
 -9.6948557e-02
  1.7718468e-03
 -4.7759697e-02
  2.6248095e+00
  7.8523517e-01
  1.9725834e-01
  7.4372715e-01
 -1.4842401e+00
  8.4373578e-02
  2.7236456e-01
  1.3317649e+00
  7.7884591e-01
  9.9595535e-01
 -9.5086706e-01
  6.0688972e-01
  4.4049326e-01
 -1.4203290e-02
  9.9379569e-03
  1.1541402e-02
  4.7172445e-01
  1.3889799e-01
  5.5653167e-01
  5.7703899e-03
 -9.2273045e-01
  6.1891619e-03
  1.2468658e-02
  5.9157047e-02
  3.6771004e+00
  8.2362109e-01
 -1.3326102e-02
 -1.0624127e-02
 -3.6852613e-01
  1.9587763e-03
  3.1649135e-02
  3.1239914e-03
  5.8207244e-02
  2.0044137e-02
 -1.1330011e-01
 -2.2505283e-02
 -1.6810535e+00
  5.7694181e-03
  7.2521031e-02
 -1.6295175e-01
 -4.5757151e-01
 -5.9179229e-01
  8.5084437e-04
  6.1138198e-03
 -4.6735788e-03
 -1.0305245e+00
  7.9304300e-02
  1.2497263e-01
  1.4192318e+00
  1.6604379e-02
 -6.0911655e-01
  1.9021028e-01
 -4.8116970e+00
  1.1561472e-01
  7.2655186e-02
  5.7642732e-02
 -2.7752576e+00
  2.8637001e-01
 -7.3597527e-01
  6.6971052e-01
 -4.9049041e-01
  3.6119927e-02
 -2.5022475e-02
 -5.7500657e-03
  1.0992246e+00
  1.5081831e+00
  1.7658569e+00
  1.3168995e-01
  1.1087150e-01
 -1.8269567e-02
 -5.6098543e-02
  1.9020176e+00
 -1.2258840e+00
  8.5949266e-01
 -1.7201902e-02
  3.8545124e-02
 -1.5816145e-01
 -1.0751124e-02
  8.4861983e-03
 -1.0995415e+00
 -3.7406823e-01
 -1.8220481e-02
  8.9804649e-01
 -3.1949468e-02
 -2.4192698e+00
 -3.0501541e-03
  7.4808754e-02
 -2.1137469e+00
 -1.7035397e+00
 -4.7042561e-01
 -1.1432154e-01
 -1.1509925e-02
 -2.4987240e+00
 -9.1562605e-01
  3.9538062e-01
  2.0119125e-01
  1.2277616e-01
 -5.9058964e-03
 -7.2127980e-01
  1.6740593e-01
 -1.8660107e-01
  5.7118613e-01
 -1.5015707e+00
  4.3261796e-01
  4.9236447e-01
  6.3157749e-01
 -3.1319991e-02
  1.4237017e-02
 -4.8839512e-01
  2.7598901e-02
 -1.2869124e-01
  7.1448857e-01
  6.2256724e-01
  1.6070558e+00
 -2.6702533e+00
  2.4450114e-02
  1.6647950e+00
 -4.9346006e-01
 -3.0385110e-01
  3.0762374e-01
  3.1239137e-01
  6.2452030e-01
 -2.7855334e-01
  3.3974162e-01
  2.2070823e+00
  1.9264059e-01
  2.0676113e-03
 -6.3020580e-02
  1.6558169e+00
  6.7701608e-02
 -2.6293337e-01
 -1.1595092e-01
  1.9727002e-01
  2.6105503e-03
  1.4892192e-01
  1.0963624e+00
 -6.1651570e-01
  7.0625031e-01
 -2.5092074e-01
  3.8557019e-02
 -1.8929805e+00
 -1.2472620e-02
  4.7746480e-01
 -1.0056468e+00
  9.8870307e-02
  4.8679586e-02
  2.0646479e+00
  5.9555233e-01
 -1.1381338e+00
  3.2408914e-01
  3.4074709e-02
  1.3740189e+00
 -1.1294900e+00
  1.5912398e+00
 -9.3540415e-02
  2.5061697e-01
 -3.5117850e-01
 -2.3698468e-02
 -5.1779759e-01
  2.2917712e-01
 -5.4909503e-01
  7.1738623e-02
  2.4925549e-02
  2.4815074e-01
  1.0276674e+00
 -1.5980503e-01
  1.8699756e-02
  1.2967350e+00
 -9.2817682e-01
 -1.3956533e-01
 -4.7420996e-01
  6.6105746e-02
 -6.2017083e-01
  7.6101129e-03
  4.0714139e-01
  1.2296839e+00
 -1.2694089e+00
  3.9161909e-01
  2.4309447e+00
 -1.7016813e-01
  3.4548752e+00
 -5.1144813e-03
  3.9652950e-01
  6.8704516e-01
 -1.8057778e+00
 -2.3505764e-01
  2.0935778e-02
  4.7284633e-02
 -1.0961392e-02
  1.2330413e-02
  1.4709866e-01
 -6.1102748e-01
  7.5299758e-03
  9.2929758e-02
  5.6962050e-02
  1.2116480e+00
 -1.0423700e-01
  9.9297632e-03
  4.7273085e-02
 -1.0686772e-01
 -1.1926895e+00
 -1.1544138e+00
 -8.5782510e-01
  4.9304776e-02
  6.8624222e-01
  5.5747788e-02
  2.2042476e-02
  1.3228706e+00
 -1.5137378e+00
 -2.0109551e-02
 -5.0028682e-01
 -1.3320145e-01
 -5.2810347e-01
  9.8767012e-01
 -4.2735431e-01
  4.7538966e-01
  9.4512945e-01
 -2.1532490e+00
  9.7894408e-03
 -1.2148160e+00
  8.2065451e-01
 -1.3609399e-01
 -1.5510322e-02
  2.2278348e-02
  5.4052651e-01
 -1.7012390e-01
  4.3602147e+00
 -1.0190147e-01
 -5.3265262e-02
 -3.8380679e-02
 -7.5274235e-01
 -1.6515388e+00
 -2.4157876e-01
 -3.4772050e-01
  4.0804502e-02
  1.1133580e-02
 -1.3977841e+00
 -5.8074564e-02
 -3.2455433e-02
 -1.7826399e-03
 -3.6092810e-02
  1.9131920e-01
 -4.1905730e-03
  2.8974799e-02
 -4.4465270e+00
 -1.2545933e-01
  2.4404736e+00
  3.6637437e+00
  3.7233455e+00
  1.2607424e+00
 -1.9097652e-02
 -2.2734815e-02
  1.9075161e-02
 -1.2043735e-02
  2.9437009e-01
  7.9615057e-02
  1.4158860e+00
 -5.9218013e-01
  5.6710815e-01
 -3.1094477e-01
  8.7309480e-01
 -4.5335904e-01
 -1.3380066e+00
  1.0679706e-01
 -1.2166021e+00
 -1.8089601e-01
 -4.3015968e-02
 -1.0852503e+00
 -6.4313132e-01
 -6.0210735e-02
 -2.9142387e-03
 -5.4916257e-01
 -2.9318361e-02
 -5.1982403e-01
  3.6707232e+00
  1.6203487e-02
  1.1790582e+00
  1.4954958e-02
 -1.0231115e+00
 -2.9195292e+00
 -1.8301386e+00
 -3.5882173e+00
  2.2087932e-02
 -6.7407347e-02
 -1.6522899e+00
 -5.8115923e-01
  1.2760104e-03
 -7.6817307e-03
  4.4352278e-02
  4.2736083e-01
  1.6680841e+00
  5.6240626e-02
  1.9835572e+00
 -8.0924255e-01
  1.9756262e+00
  1.3643545e+00
  3.2104442e+00
  8.3335662e-01
 -3.3786848e-02
 -6.7551374e-02
 -1.1668688e+00
 -1.9766060e-03
  1.0894225e+00
  3.5901070e-01
  1.2871708e+00
 -3.2461065e-01
  5.6796841e-02
 -2.1567712e+00
 -1.5742290e+00
 -3.6168182e-01
 -3.6526015e-01
 -1.6011437e+00
  3.2197961e-01
  2.2739148e+00
 -4.3640281e-03
 -3.6895621e-01
 -1.8786887e-02
 -5.0511267e-02
 -7.6544130e-01
 -1.5000880e+00
 -7.7811241e-01
 -3.9098567e-01
  2.2690051e+00
  8.1851266e-02
  2.8750014e+00
 -2.7271613e-01
 -5.6532478e-01
 -4.4799571e+00
 -2.5189192e+00
  1.1115841e+00
  1.5358908e-02
 -1.8843208e-01
 -1.6850821e+00
 -3.4423059e-01
  1.3457516e-01
 -9.5641375e-01
  5.9089410e-01
 -8.6001210e-02
  1.5246278e+00
 -1.2776352e+00
  7.1927465e-02
  1.3209526e-02
  1.3305889e+00
 -1.6764508e-01
 -6.9082564e-01
 -5.2913499e-01
  2.2956280e-02
 -3.1977717e-02
 -7.4600346e-02
 -2.1596336e-01
  1.3446842e-02
  9.2257708e-03
  2.4980742e-02
 -7.5160764e-04
  3.3593416e+00
 -1.5408776e+00
  1.4355407e+00
  4.4642426e-03
 -9.3066233e-01
  2.2515035e-01
  1.6767740e+00
  1.3628726e+00
  2.8411070e-01
 -7.6945471e-03
 -2.0205267e-02
  1.6204263e-01
 -3.8062477e-01
  3.2636106e-01
  1.3700728e-01
 -7.2594720e-01
 -1.5540509e+00
  1.2329787e+00
  4.4873825e-01
 -8.4908977e-03
 -9.7430003e-01
 -4.5488067e-02
 -6.3988239e-01
  1.3990430e+00
  1.6735423e-04
 -7.2796637e-01
 -1.1624513e+00
  9.5912535e-04
  1.0911938e+00
  4.7342431e-02
 -1.4201296e-02
 -9.3032375e-02
  9.9464536e-01
 -2.7638632e-01
  4.8932227e-01
 -4.1842782e-01
 -1.4870442e-02
  2.1440864e-01
 -3.3729482e-01
  6.0805333e-01
 -3.0318195e-02
 -1.6160928e-01
 -4.0971476e-01
 -7.3107177e-01
 -3.4823170e-01
 -1.1015114e+00
  1.7377229e-02
  3.6640618e-02
 -9.3790317e-01
 -1.0445487e+00
 -1.0561517e-02
 -3.0256265e-01
  1.1642274e+00
  6.2966591e-01
 -9.2430204e-01
  3.0192199e-01
  2.2564326e-01
 -1.4249721e-01
 -1.0361654e+00
 -1.3678710e-01
  7.7655185e-03
  7.7655185e-03
  7.7655185e-03
  7.7655185e-03
  7.7655185e-03
  7.7655185e-03
  7.7655185e-03
  1.5240475e-02
  1.5240475e-02
  1.5240475e-02
  1.5240475e-02
  1.5240475e-02
  6.8614320e-03
  6.8614320e-03
  6.8614320e-03
  6.8614320e-03
  6.8614320e-03
  6.9904327e-03
  6.9904327e-03
  6.9904327e-03
  6.9904327e-03
  6.9904327e-03
  6.7269783e-03
  6.7269783e-03
  6.7269783e-03
  6.7269783e-03
  6.7269783e-03
  1.9644632e-03
  1.9644632e-03
  1.9644632e-03
  1.9644632e-03
  1.9644632e-03
